<?xml version="1.0"?>
<MethodSetup Method="BDT::BDTG">
  <GeneralInfo>
    <Info name="TMVA Release" value="4.2.1 [262657]"/>
    <Info name="ROOT Release" value="6.18/04 [397828]"/>
    <Info name="Creator" value="jkrzysia"/>
    <Info name="Date" value="Fri Feb  7 16:24:43 2020"/>
    <Info name="Host" value="Linux buildvm-28.phx2.fedoraproject.org 5.0.6-200.fc29.x86_64 #1 SMP Wed Apr 3 15:09:51 UTC 2019 x86_64 x86_64 x86_64 GNU/Linux"/>
    <Info name="Dir" value="/afs/cern.ch/work/j/jkrzysia/TMVA"/>
    <Info name="Training events" value="1206856"/>
    <Info name="TrainingTime" value="2.89673204e+02"/>
    <Info name="AnalysisType" value="Classification"/>
  </GeneralInfo>
  <Options>
    <Option name="V" modified="Yes">False</Option>
    <Option name="VerbosityLevel" modified="No">Default</Option>
    <Option name="VarTransform" modified="No">None</Option>
    <Option name="H" modified="Yes">False</Option>
    <Option name="CreateMVAPdfs" modified="No">False</Option>
    <Option name="IgnoreNegWeightsInTraining" modified="No">False</Option>
    <Option name="NTrees" modified="Yes">200</Option>
    <Option name="MaxDepth" modified="Yes">2</Option>
    <Option name="MinNodeSize" modified="Yes">2.5%</Option>
    <Option name="nCuts" modified="Yes">20</Option>
    <Option name="BoostType" modified="Yes">Grad</Option>
    <Option name="AdaBoostR2Loss" modified="No">quadratic</Option>
    <Option name="UseBaggedBoost" modified="Yes">True</Option>
    <Option name="Shrinkage" modified="Yes">1.000000e-01</Option>
    <Option name="AdaBoostBeta" modified="No">5.000000e-01</Option>
    <Option name="UseRandomisedTrees" modified="No">False</Option>
    <Option name="UseNvars" modified="No">5</Option>
    <Option name="UsePoissonNvars" modified="No">True</Option>
    <Option name="BaggedSampleFraction" modified="Yes">5.000000e-01</Option>
    <Option name="UseYesNoLeaf" modified="No">True</Option>
    <Option name="NegWeightTreatment" modified="No">pray</Option>
    <Option name="Css" modified="No">1.000000e+00</Option>
    <Option name="Cts_sb" modified="No">1.000000e+00</Option>
    <Option name="Ctb_ss" modified="No">1.000000e+00</Option>
    <Option name="Cbb" modified="No">1.000000e+00</Option>
    <Option name="NodePurityLimit" modified="No">5.000000e-01</Option>
    <Option name="SeparationType" modified="No">giniindex</Option>
    <Option name="RegressionLossFunctionBDTG" modified="No">huber</Option>
    <Option name="HuberQuantile" modified="No">7.000000e-01</Option>
    <Option name="DoBoostMonitor" modified="No">False</Option>
    <Option name="UseFisherCuts" modified="No">False</Option>
    <Option name="MinLinCorrForFisher" modified="No">8.000000e-01</Option>
    <Option name="UseExclusiveVars" modified="No">False</Option>
    <Option name="DoPreselection" modified="No">False</Option>
    <Option name="SigToBkgFraction" modified="No">1.000000e+00</Option>
    <Option name="PruneMethod" modified="No">nopruning</Option>
    <Option name="PruneStrength" modified="No">0.000000e+00</Option>
    <Option name="PruningValFraction" modified="No">5.000000e-01</Option>
    <Option name="SkipNormalization" modified="No">False</Option>
    <Option name="nEventsMin" modified="No">0</Option>
    <Option name="UseBaggedGrad" modified="No">False</Option>
    <Option name="GradBaggingFraction" modified="No">5.000000e-01</Option>
    <Option name="UseNTrainEvents" modified="No">0</Option>
    <Option name="NNodesMax" modified="No">0</Option>
  </Options>
  <Variables NVar="29">
    <Variable VarIndex="0" Expression="sqrt(lephad_mt_lep0_met*lephad_mt_lep0_met+lephad_mt_lep1_met*lephad_mt_lep1_met+2*tau_0_p4.Pt()*lep_0_p4.Pt()*(1-cos(lephad_dphi)))" Label="sqrt(lephad_mt_lep0_met*lephad_mt_lep0_met+lephad_mt_lep1_met*lephad_mt_lep1_met+2*tau_0_p4.Pt()*lep_0_p4.Pt()*(1-cos(lephad_dphi)))" Title="mttot" Unit="GeV" Internal="sqrt(lephad_mt_lep0_met*lephad_mt_lep0_met+lephad_mt_lep1_met*lephad_mt_lep1_met+2*tau_0_p4.Pt()*lep_0_p4.Pt()*(1-cos(lephad_dphi)))" Type="I" Min="5.39149780e+01" Max="6.83650732e+03"/>
    <Variable VarIndex="1" Expression="lep_0_p4.Pt()" Label="lep_0_p4.Pt()" Title="pt_lep" Unit="GeV" Internal="lep_0_p4.Pt()" Type="I" Min="3.00000019e+01" Max="2.89363574e+03"/>
    <Variable VarIndex="2" Expression="tau_0_p4.Pt()" Label="tau_0_p4.Pt()" Title="pt_tau" Unit="GeV" Internal="tau_0_p4.Pt()" Type="I" Min="2.50000076e+01" Max="3.45646826e+03"/>
    <Variable VarIndex="3" Expression="met_reco_p4.Et()" Label="met_reco_p4.Et()" Title="met" Unit="GeV" Internal="met_reco_p4.Et()" Type="I" Min="2.26439703e-02" Max="2.93697998e+03"/>
    <Variable VarIndex="4" Expression="lephad_dphi" Label="lephad_dphi" Title="lephad_dphi" Unit="I" Internal="lephad_dphi" Type="F" Min="2.40001011e+00" Max="3.14159274e+00"/>
    <Variable VarIndex="5" Expression="lephad_met_lep0_cos_dphi" Label="lephad_met_lep0_cos_dphi" Title="lephad_met_lep0_cos_dphi" Unit="I" Internal="lephad_met_lep0_cos_dphi" Type="F" Min="2.92532604e-07" Max="3.14157939e+00"/>
    <Variable VarIndex="6" Expression="lephad_met_lep1_cos_dphi" Label="lephad_met_lep1_cos_dphi" Title="lephad_met_lep1_cos_dphi" Unit="I" Internal="lephad_met_lep1_cos_dphi" Type="F" Min="4.49121262e-06" Max="3.14159179e+00"/>
    <Variable VarIndex="7" Expression="tau_0_track0_p4.Pt()" Label="tau_0_track0_p4.Pt()" Title="track 0 pt" Unit="GeV" Internal="tau_0_track0_p4.Pt()" Type="F" Min="5.04930139e-01" Max="1.17636490e+07"/>
    <Variable VarIndex="8" Expression="tau_0_track1_p4.Pt()" Label="tau_0_track1_p4.Pt()" Title="track 1 pt" Unit="GeV" Internal="tau_0_track1_p4.Pt()" Type="F" Min="0.00000000e+00" Max="4.07664136e+03"/>
    <Variable VarIndex="9" Expression="tau_0_track2_p4.Pt()" Label="tau_0_track2_p4.Pt()" Title="track 2 pt" Unit="GeV" Internal="tau_0_track2_p4.Pt()" Type="F" Min="0.00000000e+00" Max="8.63129211e+02"/>
    <Variable VarIndex="10" Expression="tau_0_track0_p4.Eta()" Label="tau_0_track0_p4.Eta()" Title="track 0 eta" Unit="GeV" Internal="tau_0_track0_p4.Eta()" Type="F" Min="-2.61120439e+00" Max="2.59238005e+00"/>
    <Variable VarIndex="11" Expression="tau_0_track1_p4.Eta()" Label="tau_0_track1_p4.Eta()" Title="track 1 eta" Unit="F" Internal="tau_0_track1_p4.Eta()" Type="F" Min="-2.58343053e+00" Max="2.59265018e+00"/>
    <Variable VarIndex="12" Expression="tau_0_track2_p4.Eta()" Label="tau_0_track2_p4.Eta()" Title="track 2 eta" Unit="F" Internal="tau_0_track2_p4.Eta()" Type="F" Min="-2.62822866e+00" Max="2.57978940e+00"/>
    <Variable VarIndex="13" Expression="tau_0_track0_p4.Phi()" Label="tau_0_track0_p4.Phi()" Title="track 0 phi" Unit="F" Internal="tau_0_track0_p4.Phi()" Type="F" Min="-3.14159131e+00" Max="3.14158916e+00"/>
    <Variable VarIndex="14" Expression="tau_0_track1_p4.Phi()" Label="tau_0_track1_p4.Phi()" Title="track 1 phi" Unit="F" Internal="tau_0_track1_p4.Phi()" Type="F" Min="-3.14157605e+00" Max="3.14158916e+00"/>
    <Variable VarIndex="15" Expression="tau_0_track2_p4.Phi()" Label="tau_0_track2_p4.Phi()" Title="track 2 phi" Unit="F" Internal="tau_0_track2_p4.Phi()" Type="F" Min="-3.14158821e+00" Max="3.14158583e+00"/>
    <Variable VarIndex="16" Expression="2*(tau_0_track0_p4.Pt()/tau_0_p4.Pt())-1" Label="2*(tau_0_track0_p4.Pt()/tau_0_p4.Pt())-1" Title="upsilon" Unit="F" Internal="2*(tau_0_track0_p4.Pt()/tau_0_p4.Pt())-1" Type="F" Min="-9.92885709e-01" Max="1.30311688e+05"/>
    <Variable VarIndex="17" Expression="abs(tau_0_track0_p4.Eta()-tau_0_p4.Eta())" Label="abs(tau_0_track0_p4.Eta()-tau_0_p4.Eta())" Title="dEta(track_0,tau)" Unit="F" Internal="abs(tau_0_track0_p4.Eta()-tau_0_p4.Eta())" Type="F" Min="0.00000000e+00" Max="3.87151212e-01"/>
    <Variable VarIndex="18" Expression="abs(tau_0_track1_p4.Eta()-tau_0_p4.Eta())" Label="abs(tau_0_track1_p4.Eta()-tau_0_p4.Eta())" Title="dEta(track_1,tau)" Unit="F" Internal="abs(tau_0_track1_p4.Eta()-tau_0_p4.Eta())" Type="F" Min="0.00000000e+00" Max="2.50000000e+00"/>
    <Variable VarIndex="19" Expression="abs(tau_0_track2_p4.Eta()-tau_0_p4.Eta())" Label="abs(tau_0_track2_p4.Eta()-tau_0_p4.Eta())" Title="dEta(track_2,tau)" Unit="F" Internal="abs(tau_0_track2_p4.Eta()-tau_0_p4.Eta())" Type="F" Min="5.96046448e-08" Max="2.50000000e+00"/>
    <Variable VarIndex="20" Expression="abs(tau_0_track0_p4.Eta()-tau_0_track1_p4.Eta())" Label="abs(tau_0_track0_p4.Eta()-tau_0_track1_p4.Eta())" Title="dEta(track_0,track_1)" Unit="F" Internal="abs(tau_0_track0_p4.Eta()-tau_0_track1_p4.Eta())" Type="F" Min="0.00000000e+00" Max="2.61120439e+00"/>
    <Variable VarIndex="21" Expression="abs(tau_0_track0_p4.Eta()-tau_0_track2_p4.Eta())" Label="abs(tau_0_track0_p4.Eta()-tau_0_track2_p4.Eta())" Title="dEta(track_0,track_2)" Unit="F" Internal="abs(tau_0_track0_p4.Eta()-tau_0_track2_p4.Eta())" Type="F" Min="0.00000000e+00" Max="2.61120439e+00"/>
    <Variable VarIndex="22" Expression="abs(tau_0_track1_p4.Eta()-tau_0_track2_p4.Eta())" Label="abs(tau_0_track1_p4.Eta()-tau_0_track2_p4.Eta())" Title="dEta(track_1,track_2)" Unit="F" Internal="abs(tau_0_track1_p4.Eta()-tau_0_track2_p4.Eta())" Type="F" Min="0.00000000e+00" Max="4.93971109e-01"/>
    <Variable VarIndex="23" Expression="abs(tau_0_track0_p4.Phi()-tau_0_p4.Phi())" Label="abs(tau_0_track0_p4.Phi()-tau_0_p4.Phi())" Title="dPhi(track_0,tau)" Unit="F" Internal="abs(tau_0_track0_p4.Phi()-tau_0_p4.Phi())" Type="F" Min="0.00000000e+00" Max="6.28300285e+00"/>
    <Variable VarIndex="24" Expression="abs(tau_0_track1_p4.Phi()-tau_0_p4.Phi())" Label="abs(tau_0_track1_p4.Phi()-tau_0_p4.Phi())" Title="dPhi(track_1,tau)" Unit="F" Internal="abs(tau_0_track1_p4.Phi()-tau_0_p4.Phi())" Type="F" Min="0.00000000e+00" Max="6.28180885e+00"/>
    <Variable VarIndex="25" Expression="abs(tau_0_track2_p4.Phi()-tau_0_p4.Phi())" Label="abs(tau_0_track2_p4.Phi()-tau_0_p4.Phi())" Title="dPhi(track_2,tau)" Unit="F" Internal="abs(tau_0_track2_p4.Phi()-tau_0_p4.Phi())" Type="F" Min="1.49011612e-07" Max="6.28207874e+00"/>
    <Variable VarIndex="26" Expression="abs(tau_0_track0_p4.Phi()-tau_0_track1_p4.Phi())" Label="abs(tau_0_track0_p4.Phi()-tau_0_track1_p4.Phi())" Title="dPhi(track_0,track_1)" Unit="F" Internal="abs(tau_0_track0_p4.Phi()-tau_0_track1_p4.Phi())" Type="F" Min="2.38418579e-07" Max="6.28277779e+00"/>
    <Variable VarIndex="27" Expression="abs(tau_0_track0_p4.Phi()-tau_0_track2_p4.Phi())" Label="abs(tau_0_track0_p4.Phi()-tau_0_track2_p4.Phi())" Title="dPhi(track_0,track_2)" Unit="F" Internal="abs(tau_0_track0_p4.Phi()-tau_0_track2_p4.Phi())" Type="F" Min="8.75443220e-08" Max="6.28291035e+00"/>
    <Variable VarIndex="28" Expression="abs(tau_0_track1_p4.Phi()-tau_0_track2_p4.Phi())" Label="abs(tau_0_track1_p4.Phi()-tau_0_track2_p4.Phi())" Title="dPhi(track_1,track_2)" Unit="F" Internal="abs(tau_0_track1_p4.Phi()-tau_0_track2_p4.Phi())" Type="F" Min="0.00000000e+00" Max="6.28299093e+00"/>
  </Variables>
  <Spectators NSpec="0"/>
  <Classes NClass="2">
    <Class Name="Signal" Index="0"/>
    <Class Name="Background" Index="1"/>
  </Classes>
  <Transformations NTransformations="0"/>
  <MVAPdfs/>
  <Weights NTrees="200" AnalysisType="1">
    <BinaryTree type="DecisionTree" boostWeight="1.0000000000000000e+00" itree="0">
      <Node pos="s" depth="0" NCoef="0" IVar="0" Cut="1.1377933502197266e+02" cType="1" res="3.7380659487098455e-03" rms="4.9998602271080017e-01" purity="5.0373810529708862e-01" nType="0">
        <Node pos="l" depth="1" NCoef="0" IVar="3" Cut="2.0028642654418945e+01" cType="1" res="1.8692049384117126e-01" rms="-nan" purity="1.9550456106662750e-01" nType="0">
          <Node pos="l" depth="2" NCoef="0" IVar="-1" Cut="0.0000000000000000e+00" cType="1" res="-6.6925689578056335e-02" rms="3.7151554226875305e-01" purity="1.6537155210971832e-01" nType="-99"/>
          <Node pos="r" depth="2" NCoef="0" IVar="-1" Cut="0.0000000000000000e+00" cType="1" res="-1.7006970942020416e-02" rms="4.9271601438522339e-01" purity="4.1496515274047852e-01" nType="-99"/>
        </Node>
        <Node pos="r" depth="1" NCoef="0" IVar="2" Cut="6.5000396728515625e+01" cType="1" res="3.5993650555610657e-01" rms="3.4705290198326111e-01" purity="8.5993653535842896e-01" nType="0">
          <Node pos="l" depth="2" NCoef="0" IVar="-1" Cut="0.0000000000000000e+00" cType="1" res="4.5523647218942642e-02" rms="4.4518527388572693e-01" purity="7.2761827707290649e-01" nType="-99"/>
          <Node pos="r" depth="2" NCoef="0" IVar="-1" Cut="0.0000000000000000e+00" cType="1" res="8.5479140281677246e-02" rms="2.5948587059974670e-01" purity="9.2739570140838623e-01" nType="-99"/>
        </Node>
      </Node>
    </BinaryTree>
    <BinaryTree type="DecisionTree" boostWeight="1.0000000000000000e+00" itree="1">
      <Node pos="s" depth="0" NCoef="0" IVar="0" Cut="1.1791497802734375e+02" cType="1" res="6.0053784400224686e-03" rms="4.7629341483116150e-01" purity="5.0729244947433472e-01" nType="0">
        <Node pos="l" depth="1" NCoef="0" IVar="3" Cut="2.1042524337768555e+01" cType="1" res="1.8184478580951691e-01" rms="-nan" purity="2.0724609494209290e-01" nType="0">
          <Node pos="l" depth="2" NCoef="0" IVar="-1" Cut="0.0000000000000000e+00" cType="1" res="-6.1749584972858429e-02" rms="3.6584094166755676e-01" purity="1.6176880896091461e-01" nType="-99"/>
          <Node pos="r" depth="2" NCoef="0" IVar="-1" Cut="0.0000000000000000e+00" cType="1" res="-1.4203655882738531e-04" rms="5.0037586688995361e-01" purity="4.9537512660026550e-01" nType="-99"/>
        </Node>
        <Node pos="r" depth="1" NCoef="0" IVar="0" Cut="1.2991516113281250e+02" cType="1" res="3.4972330927848816e-01" rms="3.1456127762794495e-01" purity="8.8699990510940552e-01" nType="0">
          <Node pos="l" depth="2" NCoef="0" IVar="-1" Cut="0.0000000000000000e+00" cType="1" res="3.7394162267446518e-02" rms="4.5238330960273743e-01" purity="7.1201944351196289e-01" nType="-99"/>
          <Node pos="r" depth="2" NCoef="0" IVar="-1" Cut="0.0000000000000000e+00" cType="1" res="7.6531805098056793e-02" rms="2.7077457308769226e-01" purity="9.1965496540069580e-01" nType="-99"/>
        </Node>
      </Node>
    </BinaryTree>
    <BinaryTree type="DecisionTree" boostWeight="1.0000000000000000e+00" itree="2">
      <Node pos="s" depth="0" NCoef="0" IVar="0" Cut="1.1823368835449219e+02" cType="1" res="-1.1579021811485291e-02" rms="4.5614868402481079e-01" purity="4.8790043592453003e-01" nType="0">
        <Node pos="l" depth="1" NCoef="0" IVar="0" Cut="1.1023368835449219e+02" cType="1" res="-2.4856382608413696e-01" rms="3.9234361052513123e-01" purity="1.9710458815097809e-01" nType="0">
          <Node pos="l" depth="2" NCoef="0" IVar="-1" Cut="0.0000000000000000e+00" cType="1" res="-5.5722132325172424e-02" rms="3.6941596865653992e-01" purity="1.6736328601837158e-01" nType="-99"/>
          <Node pos="r" depth="2" NCoef="0" IVar="-1" Cut="0.0000000000000000e+00" cType="1" res="-4.3617305345833302e-03" rms="4.9915564060211182e-01" purity="4.5695447921752930e-01" nType="-99"/>
        </Node>
        <Node pos="r" depth="1" NCoef="0" IVar="2" Cut="6.6000396728515625e+01" cType="1" res="3.0824539065361023e-01" rms="3.2101851701736450e-01" purity="8.8034588098526001e-01" nType="0">
          <Node pos="l" depth="2" NCoef="0" IVar="-1" Cut="0.0000000000000000e+00" cType="1" res="3.7820309400558472e-02" rms="4.3818339705467224e-01" purity="7.3884856700897217e-01" nType="-99"/>
          <Node pos="r" depth="2" NCoef="0" IVar="-1" Cut="0.0000000000000000e+00" cType="1" res="7.2460174560546875e-02" rms="2.5039491057395935e-01" purity="9.3268543481826782e-01" nType="-99"/>
        </Node>
      </Node>
    </BinaryTree>
    <BinaryTree type="DecisionTree" boostWeight="1.0000000000000000e+00" itree="3">
      <Node pos="s" depth="0" NCoef="0" IVar="0" Cut="1.1891497802734375e+02" cType="1" res="1.7025074921548367e-03" rms="4.3945297598838806e-01" purity="5.0159054994583130e-01" nType="0">
        <Node pos="l" depth="1" NCoef="0" IVar="3" Cut="2.1028530120849609e+01" cType="1" res="0.0000000000000000e+00" rms="0.0000000000000000e+00" purity="2.0807643234729767e-01" nType="0">
          <Node pos="l" depth="2" NCoef="0" IVar="-1" Cut="0.0000000000000000e+00" cType="1" res="-5.0975076854228973e-02" rms="3.6902651190757751e-01" purity="1.6689364612102509e-01" nType="-99"/>
          <Node pos="r" depth="2" NCoef="0" IVar="-1" Cut="0.0000000000000000e+00" cType="1" res="-5.6012265849858522e-04" rms="5.0123137235641479e-01" purity="4.7378340363502502e-01" nType="-99"/>
        </Node>
        <Node pos="r" depth="1" NCoef="0" IVar="2" Cut="5.8020812988281250e+01" cType="1" res="2.8632041811943054e-01" rms="3.1025701761245728e-01" purity="8.8859188556671143e-01" nType="0">
          <Node pos="l" depth="2" NCoef="0" IVar="-1" Cut="0.0000000000000000e+00" cType="1" res="2.6560120284557343e-02" rms="4.5880183577537537e-01" purity="6.9872331619262695e-01" nType="-99"/>
          <Node pos="r" depth="2" NCoef="0" IVar="-1" Cut="0.0000000000000000e+00" cType="1" res="6.4935818314552307e-02" rms="2.7432867884635925e-01" purity="9.1663753986358643e-01" nType="-99"/>
        </Node>
      </Node>
    </BinaryTree>
    <BinaryTree type="DecisionTree" boostWeight="1.0000000000000000e+00" itree="4">
      <Node pos="s" depth="0" NCoef="0" IVar="0" Cut="1.1591497802734375e+02" cType="1" res="6.3688769005239010e-03" rms="4.2875811457633972e-01" purity="5.0268447399139404e-01" nType="0">
        <Node pos="l" depth="1" NCoef="0" IVar="3" Cut="2.4030138015747070e+01" cType="1" res="9.0548530220985413e-02" rms="-nan" purity="2.1400383114814758e-01" nType="0">
          <Node pos="l" depth="2" NCoef="0" IVar="-1" Cut="0.0000000000000000e+00" cType="1" res="-4.2984109371900558e-02" rms="3.8713955879211426e-01" purity="1.8611983954906464e-01" nType="-99"/>
          <Node pos="r" depth="2" NCoef="0" IVar="-1" Cut="0.0000000000000000e+00" cType="1" res="1.0683548636734486e-02" rms="5.0023347139358521e-01" purity="5.2345621585845947e-01" nType="-99"/>
        </Node>
        <Node pos="r" depth="1" NCoef="0" IVar="2" Cut="6.3012557983398438e+01" cType="1" res="2.4918894469738007e-01" rms="3.2460948824882507e-01" purity="8.7295055389404297e-01" nType="0">
          <Node pos="l" depth="2" NCoef="0" IVar="-1" Cut="0.0000000000000000e+00" cType="1" res="2.8508577495813370e-02" rms="4.5147144794464111e-01" purity="7.1082031726837158e-01" nType="-99"/>
          <Node pos="r" depth="2" NCoef="0" IVar="-1" Cut="0.0000000000000000e+00" cType="1" res="6.2168717384338379e-02" rms="2.5949919223785400e-01" purity="9.2670434713363647e-01" nType="-99"/>
        </Node>
      </Node>
    </BinaryTree>
    <BinaryTree type="DecisionTree" boostWeight="1.0000000000000000e+00" itree="5">
      <Node pos="s" depth="0" NCoef="0" IVar="0" Cut="1.0991497802734375e+02" cType="1" res="1.0410631075501442e-02" rms="4.1591620445251465e-01" purity="5.0995099544525146e-01" nType="0">
        <Node pos="l" depth="1" NCoef="0" IVar="3" Cut="2.2028530120849609e+01" cType="1" res="1.0167996585369110e-01" rms="-nan" purity="1.9002501666545868e-01" nType="0">
          <Node pos="l" depth="2" NCoef="0" IVar="-1" Cut="0.0000000000000000e+00" cType="1" res="-4.3789263814687729e-02" rms="3.6877754330635071e-01" purity="1.6230256855487823e-01" nType="-99"/>
          <Node pos="r" depth="2" NCoef="0" IVar="-1" Cut="0.0000000000000000e+00" cType="1" res="2.6557131204754114e-03" rms="4.9889683723449707e-01" purity="4.7555354237556458e-01" nType="-99"/>
        </Node>
        <Node pos="r" depth="1" NCoef="0" IVar="2" Cut="6.1001327514648438e+01" cType="1" res="2.1004025638103485e-01" rms="3.4382635354995728e-01" purity="8.3868426084518433e-01" nType="0">
          <Node pos="l" depth="2" NCoef="0" IVar="-1" Cut="0.0000000000000000e+00" cType="1" res="1.8697353079915047e-02" rms="4.7037097811698914e-01" purity="6.2699204683303833e-01" nType="-99"/>
          <Node pos="r" depth="2" NCoef="0" IVar="-1" Cut="0.0000000000000000e+00" cType="1" res="5.7630944997072220e-02" rms="2.6636108756065369e-01" purity="9.2018502950668335e-01" nType="-99"/>
        </Node>
      </Node>
    </BinaryTree>
    <BinaryTree type="DecisionTree" boostWeight="1.0000000000000000e+00" itree="6">
      <Node pos="s" depth="0" NCoef="0" IVar="0" Cut="1.1325386810302734e+02" cType="1" res="7.7396375127136707e-04" rms="4.0595665574073792e-01" purity="4.9959626793861389e-01" nType="0">
        <Node pos="l" depth="1" NCoef="0" IVar="3" Cut="1.6028642654418945e+01" cType="1" res="1.2317610532045364e-01" rms="-nan" purity="1.9256719946861267e-01" nType="0">
          <Node pos="l" depth="2" NCoef="0" IVar="-1" Cut="0.0000000000000000e+00" cType="1" res="-4.6397723257541656e-02" rms="3.4230822324752808e-01" purity="1.3563367724418640e-01" nType="-99"/>
          <Node pos="r" depth="2" NCoef="0" IVar="-1" Cut="0.0000000000000000e+00" cType="1" res="-3.7438629660755396e-03" rms="4.7819179296493530e-01" purity="3.9651677012443542e-01" nType="-99"/>
        </Node>
        <Node pos="r" depth="1" NCoef="0" IVar="2" Cut="5.2000396728515625e+01" cType="1" res="1.9657762348651886e-01" rms="3.3643940091133118e-01" purity="8.5604268312454224e-01" nType="0">
          <Node pos="l" depth="2" NCoef="0" IVar="-1" Cut="0.0000000000000000e+00" cType="1" res="9.3340175226330757e-04" rms="4.7921249270439148e-01" purity="5.8809542655944824e-01" nType="-99"/>
          <Node pos="r" depth="2" NCoef="0" IVar="-1" Cut="0.0000000000000000e+00" cType="1" res="4.8999018967151642e-02" rms="3.1429097056388855e-01" purity="8.8068115711212158e-01" nType="-99"/>
        </Node>
      </Node>
    </BinaryTree>
    <BinaryTree type="DecisionTree" boostWeight="1.0000000000000000e+00" itree="7">
      <Node pos="s" depth="0" NCoef="0" IVar="0" Cut="1.1591497802734375e+02" cType="1" res="1.3177722692489624e-02" rms="3.9506602287292480e-01" purity="5.1833081245422363e-01" nType="0">
        <Node pos="l" depth="1" NCoef="0" IVar="21" Cut="6.2171548604965210e-01" cType="1" res="-3.8765382021665573e-02" rms="1.4063486456871033e-01" purity="2.1232506632804871e-01" nType="0">
          <Node pos="l" depth="2" NCoef="0" IVar="-1" Cut="0.0000000000000000e+00" cType="1" res="-6.6327145323157310e-03" rms="4.5006072521209717e-01" purity="3.2407578825950623e-01" nType="-99"/>
          <Node pos="r" depth="2" NCoef="0" IVar="-1" Cut="0.0000000000000000e+00" cType="1" res="-4.8905089497566223e-02" rms="3.2416769862174988e-01" purity="1.2608338892459869e-01" nType="-99"/>
        </Node>
        <Node pos="r" depth="1" NCoef="0" IVar="2" Cut="6.3004981994628906e+01" cType="1" res="1.9063483178615570e-01" rms="3.1266763806343079e-01" purity="8.8117820024490356e-01" nType="0">
          <Node pos="l" depth="2" NCoef="0" IVar="-1" Cut="0.0000000000000000e+00" cType="1" res="2.1570313721895218e-02" rms="4.4939887523651123e-01" purity="7.1403461694717407e-01" nType="-99"/>
          <Node pos="r" depth="2" NCoef="0" IVar="-1" Cut="0.0000000000000000e+00" cType="1" res="5.3266059607267380e-02" rms="2.5191473960876465e-01" purity="9.3125748634338379e-01" nType="-99"/>
        </Node>
      </Node>
    </BinaryTree>
    <BinaryTree type="DecisionTree" boostWeight="1.0000000000000000e+00" itree="8">
      <Node pos="s" depth="0" NCoef="0" IVar="0" Cut="1.1723368835449219e+02" cType="1" res="-6.6783316433429718e-03" rms="3.8454771041870117e-01" purity="4.9604344367980957e-01" nType="0">
        <Node pos="l" depth="1" NCoef="0" IVar="9" Cut="5.9049434661865234e+00" cType="1" res="-3.1549841165542603e-02" rms="1.5916530787944794e-01" purity="1.8681089580059052e-01" nType="0">
          <Node pos="l" depth="2" NCoef="0" IVar="-1" Cut="0.0000000000000000e+00" cType="1" res="-3.8174793124198914e-02" rms="3.6176979541778564e-01" purity="1.6706366837024689e-01" nType="-99"/>
          <Node pos="r" depth="2" NCoef="0" IVar="-1" Cut="0.0000000000000000e+00" cType="1" res="2.8424436226487160e-02" rms="4.8097169399261475e-01" purity="4.9080350995063782e-01" nType="-99"/>
        </Node>
        <Node pos="r" depth="1" NCoef="0" IVar="0" Cut="2.0323403930664062e+02" cType="1" res="1.7158588767051697e-01" rms="3.1293949484825134e-01" purity="8.8213557004928589e-01" nType="0">
          <Node pos="l" depth="2" NCoef="0" IVar="-1" Cut="0.0000000000000000e+00" cType="1" res="4.5097008347511292e-02" rms="2.9789757728576660e-01" purity="8.9278161525726318e-01" nType="-99"/>
          <Node pos="r" depth="2" NCoef="0" IVar="-1" Cut="0.0000000000000000e+00" cType="1" res="-5.4843164980411530e-03" rms="4.4841781258583069e-01" purity="7.1678745746612549e-01" nType="-99"/>
        </Node>
      </Node>
    </BinaryTree>
    <BinaryTree type="DecisionTree" boostWeight="1.0000000000000000e+00" itree="9">
      <Node pos="s" depth="0" NCoef="0" IVar="2" Cut="6.1000114440917969e+01" cType="1" res="-2.6504562702029943e-03" rms="3.8781011104583740e-01" purity="4.8952537775039673e-01" nType="0">
        <Node pos="l" depth="1" NCoef="0" IVar="19" Cut="1.6666625738143921e+00" cType="1" res="-3.0812289565801620e-02" rms="1.3241781294345856e-01" purity="2.6433303952217102e-01" nType="0">
          <Node pos="l" depth="2" NCoef="0" IVar="-1" Cut="0.0000000000000000e+00" cType="1" res="-1.2362590990960598e-02" rms="4.2913603782653809e-01" purity="3.1217837333679199e-01" nType="-99"/>
          <Node pos="r" depth="2" NCoef="0" IVar="-1" Cut="0.0000000000000000e+00" cType="1" res="-5.3738817572593689e-02" rms="2.8844669461250305e-01" purity="1.0651975125074387e-01" nType="-99"/>
        </Node>
        <Node pos="r" depth="1" NCoef="0" IVar="0" Cut="2.0867935180664062e+02" cType="1" res="1.6626021265983582e-01" rms="2.7848407626152039e-01" purity="9.0509301424026489e-01" nType="0">
          <Node pos="l" depth="2" NCoef="0" IVar="-1" Cut="0.0000000000000000e+00" cType="1" res="4.7723136842250824e-02" rms="2.5578701496124268e-01" purity="9.1907727718353271e-01" nType="-99"/>
          <Node pos="r" depth="2" NCoef="0" IVar="-1" Cut="0.0000000000000000e+00" cType="1" res="-9.3206210294738412e-04" rms="4.4178748130798340e-01" purity="7.3346042633056641e-01" nType="-99"/>
        </Node>
      </Node>
    </BinaryTree>
    <BinaryTree type="DecisionTree" boostWeight="1.0000000000000000e+00" itree="10">
      <Node pos="s" depth="0" NCoef="0" IVar="0" Cut="9.8786163330078125e+01" cType="1" res="-3.0901088030077517e-04" rms="3.7597793340682983e-01" purity="5.0050324201583862e-01" nType="0">
        <Node pos="l" depth="1" NCoef="0" IVar="5" Cut="1.4962054789066315e-01" cType="1" res="-5.4385799914598465e-02" rms="1.7102853953838348e-01" purity="1.2585131824016571e-01" nType="0">
          <Node pos="l" depth="2" NCoef="0" IVar="-1" Cut="0.0000000000000000e+00" cType="1" res="-2.1398437675088644e-03" rms="4.5065420866012573e-01" purity="2.9809677600860596e-01" nType="-99"/>
          <Node pos="r" depth="2" NCoef="0" IVar="-1" Cut="0.0000000000000000e+00" cType="1" res="-4.5123897492885590e-02" rms="3.0427175760269165e-01" purity="1.0871871560811996e-01" nType="-99"/>
        </Node>
        <Node pos="r" depth="1" NCoef="0" IVar="0" Cut="1.2378652954101562e+02" cType="1" res="9.9814333021640778e-02" rms="3.6816743016242981e-01" purity="7.2071999311447144e-01" nType="0">
          <Node pos="l" depth="2" NCoef="0" IVar="-1" Cut="0.0000000000000000e+00" cType="1" res="1.9074288429692388e-03" rms="4.6315237879753113e-01" purity="4.0684106945991516e-01" nType="-99"/>
          <Node pos="r" depth="2" NCoef="0" IVar="-1" Cut="0.0000000000000000e+00" cType="1" res="4.1399579495191574e-02" rms="2.8577324748039246e-01" purity="9.0415114164352417e-01" nType="-99"/>
        </Node>
      </Node>
    </BinaryTree>
    <BinaryTree type="DecisionTree" boostWeight="1.0000000000000000e+00" itree="11">
      <Node pos="s" depth="0" NCoef="0" IVar="0" Cut="1.2525386810302734e+02" cType="1" res="-2.2919841576367617e-03" rms="3.7377908825874329e-01" purity="4.9598294496536255e-01" nType="0">
        <Node pos="l" depth="1" NCoef="0" IVar="0" Cut="9.8253868103027344e+01" cType="1" res="-9.1906212270259857e-02" rms="3.9643645286560059e-01" purity="2.3305943608283997e-01" nType="0">
          <Node pos="l" depth="2" NCoef="0" IVar="-1" Cut="0.0000000000000000e+00" cType="1" res="-3.4789450466632843e-02" rms="3.4236466884613037e-01" purity="1.3964976370334625e-01" nType="-99"/>
          <Node pos="r" depth="2" NCoef="0" IVar="-1" Cut="0.0000000000000000e+00" cType="1" res="-4.0675313211977482e-03" rms="4.5936042070388794e-01" purity="3.7986451387405396e-01" nType="-99"/>
        </Node>
        <Node pos="r" depth="1" NCoef="0" IVar="0" Cut="2.0525418090820312e+02" cType="1" res="1.3744202256202698e-01" rms="2.8364044427871704e-01" purity="9.0595531463623047e-01" nType="0">
          <Node pos="l" depth="2" NCoef="0" IVar="-1" Cut="0.0000000000000000e+00" cType="1" res="4.2964939028024673e-02" rms="2.6212000846862793e-01" purity="9.2053788900375366e-01" nType="-99"/>
          <Node pos="r" depth="2" NCoef="0" IVar="-1" Cut="0.0000000000000000e+00" cType="1" res="-9.2393541708588600e-03" rms="4.4407019019126892e-01" purity="7.2158545255661011e-01" nType="-99"/>
        </Node>
      </Node>
    </BinaryTree>
    <BinaryTree type="DecisionTree" boostWeight="1.0000000000000000e+00" itree="12">
      <Node pos="s" depth="0" NCoef="0" IVar="0" Cut="1.0991497802734375e+02" cType="1" res="8.2273874431848526e-03" rms="3.8257002830505371e-01" purity="4.9416872859001160e-01" nType="0">
        <Node pos="l" depth="1" NCoef="0" IVar="3" Cut="2.3028642654418945e+01" cType="1" res="1.4200180768966675e-01" rms="-nan" purity="2.0382954180240631e-01" nType="0">
          <Node pos="l" depth="2" NCoef="0" IVar="-1" Cut="0.0000000000000000e+00" cType="1" res="-2.3494310677051544e-02" rms="3.7804624438285828e-01" purity="1.7455586791038513e-01" nType="-99"/>
          <Node pos="r" depth="2" NCoef="0" IVar="-1" Cut="0.0000000000000000e+00" cType="1" res="2.4988690391182899e-02" rms="4.9897825717926025e-01" purity="5.2067029476165771e-01" nType="-99"/>
        </Node>
        <Node pos="r" depth="1" NCoef="0" IVar="21" Cut="1.8219100236892700e+00" cType="1" res="1.3662885874509811e-02" rms="2.5460961461067200e-01" purity="8.2351058721542358e-01" nType="0">
          <Node pos="l" depth="2" NCoef="0" IVar="-1" Cut="0.0000000000000000e+00" cType="1" res="3.2759595662355423e-02" rms="3.3170416951179504e-01" purity="8.4720402956008911e-01" nType="-99"/>
          <Node pos="r" depth="2" NCoef="0" IVar="-1" Cut="0.0000000000000000e+00" cType="1" res="-2.1030543372035027e-02" rms="4.2372921109199524e-01" purity="5.9425121545791626e-01" nType="-99"/>
        </Node>
      </Node>
    </BinaryTree>
    <BinaryTree type="DecisionTree" boostWeight="1.0000000000000000e+00" itree="13">
      <Node pos="s" depth="0" NCoef="0" IVar="0" Cut="1.0691497802734375e+02" cType="1" res="3.7098812754265964e-04" rms="3.6611324548721313e-01" purity="5.0198113918304443e-01" nType="0">
        <Node pos="l" depth="1" NCoef="0" IVar="1" Cut="5.1000034332275391e+01" cType="1" res="4.4706732034683228e-02" rms="-nan" purity="1.6071607172489166e-01" nType="0">
          <Node pos="l" depth="2" NCoef="0" IVar="-1" Cut="0.0000000000000000e+00" cType="1" res="-3.0659787356853485e-02" rms="3.4780248999595642e-01" purity="1.4662496745586395e-01" nType="-99"/>
          <Node pos="r" depth="2" NCoef="0" IVar="-1" Cut="0.0000000000000000e+00" cType="1" res="3.2731052488088608e-02" rms="4.8825743794441223e-01" purity="4.0243855118751526e-01" nType="-99"/>
        </Node>
        <Node pos="r" depth="1" NCoef="0" IVar="20" Cut="1.3454588651657104e+00" cType="1" res="1.2598650529980659e-02" rms="2.5601160526275635e-01" purity="8.0979770421981812e-01" nType="0">
          <Node pos="l" depth="2" NCoef="0" IVar="-1" Cut="0.0000000000000000e+00" cType="1" res="3.4600708633661270e-02" rms="3.2212519645690918e-01" purity="8.5048806667327881e-01" nType="-99"/>
          <Node pos="r" depth="2" NCoef="0" IVar="-1" Cut="0.0000000000000000e+00" cType="1" res="-8.4018986672163010e-03" rms="4.0731972455978394e-01" purity="6.2079215049743652e-01" nType="-99"/>
        </Node>
      </Node>
    </BinaryTree>
    <BinaryTree type="DecisionTree" boostWeight="1.0000000000000000e+00" itree="14">
      <Node pos="s" depth="0" NCoef="0" IVar="0" Cut="1.1091497802734375e+02" cType="1" res="7.9393088817596436e-03" rms="3.7667393684387207e-01" purity="4.9474224448204041e-01" nType="0">
        <Node pos="l" depth="1" NCoef="0" IVar="25" Cut="5.9826767444610596e-01" cType="1" res="-1.8261943012475967e-02" rms="1.5222777426242828e-01" purity="2.0005732774734497e-01" nType="0">
          <Node pos="l" depth="2" NCoef="0" IVar="-1" Cut="0.0000000000000000e+00" cType="1" res="6.4522475004196167e-03" rms="4.4750845432281494e-01" purity="2.9395899176597595e-01" nType="-99"/>
          <Node pos="r" depth="2" NCoef="0" IVar="-1" Cut="0.0000000000000000e+00" cType="1" res="-2.6688871905207634e-02" rms="3.5404041409492493e-01" purity="1.5692429244518280e-01" nType="-99"/>
        </Node>
        <Node pos="r" depth="1" NCoef="0" IVar="0" Cut="1.9691539001464844e+02" cType="1" res="8.7329529225826263e-02" rms="3.4363546967506409e-01" purity="8.3338397741317749e-01" nType="0">
          <Node pos="l" depth="2" NCoef="0" IVar="-1" Cut="0.0000000000000000e+00" cType="1" res="2.8617193922400475e-02" rms="3.3047139644622803e-01" purity="8.4420388936996460e-01" nType="-99"/>
          <Node pos="r" depth="2" NCoef="0" IVar="-1" Cut="0.0000000000000000e+00" cType="1" res="-3.9227526634931564e-02" rms="4.6258163452148438e-01" purity="6.5461313724517822e-01" nType="-99"/>
        </Node>
      </Node>
    </BinaryTree>
    <BinaryTree type="DecisionTree" boostWeight="1.0000000000000000e+00" itree="15">
      <Node pos="s" depth="0" NCoef="0" IVar="2" Cut="5.1000030517578125e+01" cType="1" res="-5.2289399318397045e-03" rms="3.6471140384674072e-01" purity="4.8587006330490112e-01" nType="0">
        <Node pos="l" depth="1" NCoef="0" IVar="5" Cut="7.4801230430603027e-01" cType="1" res="-2.3422641679644585e-02" rms="1.4108540117740631e-01" purity="2.0276562869548798e-01" nType="0">
          <Node pos="l" depth="2" NCoef="0" IVar="-1" Cut="0.0000000000000000e+00" cType="1" res="-6.2407767400145531e-03" rms="4.1503068804740906e-01" purity="3.1418982148170471e-01" nType="-99"/>
          <Node pos="r" depth="2" NCoef="0" IVar="-1" Cut="0.0000000000000000e+00" cType="1" res="-3.4032735973596573e-02" rms="3.2733714580535889e-01" purity="1.2547740340232849e-01" nType="-99"/>
        </Node>
        <Node pos="r" depth="1" NCoef="0" IVar="0" Cut="1.3183889770507812e+02" cType="1" res="7.9994179308414459e-02" rms="3.3994749188423157e-01" purity="7.9244607686996460e-01" nType="0">
          <Node pos="l" depth="2" NCoef="0" IVar="-1" Cut="0.0000000000000000e+00" cType="1" res="2.6587597094476223e-03" rms="4.6082594990730286e-01" purity="5.0986230373382568e-01" nType="-99"/>
          <Node pos="r" depth="2" NCoef="0" IVar="-1" Cut="0.0000000000000000e+00" cType="1" res="3.6938995122909546e-02" rms="2.5940319895744324e-01" purity="9.2388778924942017e-01" nType="-99"/>
        </Node>
      </Node>
    </BinaryTree>
    <BinaryTree type="DecisionTree" boostWeight="1.0000000000000000e+00" itree="16">
      <Node pos="s" depth="0" NCoef="0" IVar="0" Cut="1.2025386810302734e+02" cType="1" res="-6.3465232960879803e-03" rms="3.5856333374977112e-01" purity="4.8918142914772034e-01" nType="0">
        <Node pos="l" depth="1" NCoef="0" IVar="9" Cut="6.2294683456420898e+00" cType="1" res="-1.9524659961462021e-02" rms="1.3449622690677643e-01" purity="2.0509241521358490e-01" nType="0">
          <Node pos="l" depth="2" NCoef="0" IVar="-1" Cut="0.0000000000000000e+00" cType="1" res="-2.2661114111542702e-02" rms="3.7108939886093140e-01" purity="1.8786351382732391e-01" nType="-99"/>
          <Node pos="r" depth="2" NCoef="0" IVar="-1" Cut="0.0000000000000000e+00" cType="1" res="3.6012649536132812e-02" rms="4.7083735466003418e-01" purity="5.0303804874420166e-01" nType="-99"/>
        </Node>
        <Node pos="r" depth="1" NCoef="0" IVar="3" Cut="6.4105934143066406e+01" cType="1" res="8.6686067283153534e-02" rms="3.0039393901824951e-01" purity="8.9073514938354492e-01" nType="0">
          <Node pos="l" depth="2" NCoef="0" IVar="-1" Cut="0.0000000000000000e+00" cType="1" res="3.2133940607309341e-02" rms="2.8333744406700134e-01" purity="9.0481317043304443e-01" nType="-99"/>
          <Node pos="r" depth="2" NCoef="0" IVar="-1" Cut="0.0000000000000000e+00" cType="1" res="-2.2374685853719711e-02" rms="4.4610646367073059e-01" purity="6.9614464044570923e-01" nType="-99"/>
        </Node>
      </Node>
    </BinaryTree>
    <BinaryTree type="DecisionTree" boostWeight="1.0000000000000000e+00" itree="17">
      <Node pos="s" depth="0" NCoef="0" IVar="0" Cut="1.0791497802734375e+02" cType="1" res="9.2812525108456612e-03" rms="3.6859798431396484e-01" purity="4.9952390789985657e-01" nType="0">
        <Node pos="l" depth="1" NCoef="0" IVar="3" Cut="2.2028530120849609e+01" cType="1" res="6.5677970647811890e-02" rms="-nan" purity="1.8790028989315033e-01" nType="0">
          <Node pos="l" depth="2" NCoef="0" IVar="-1" Cut="0.0000000000000000e+00" cType="1" res="-2.0360799506306648e-02" rms="3.5873034596443176e-01" purity="1.5333069860935211e-01" nType="-99"/>
          <Node pos="r" depth="2" NCoef="0" IVar="-1" Cut="0.0000000000000000e+00" cType="1" res="3.2649472355842590e-02" rms="4.9748530983924866e-01" purity="5.2167356014251709e-01" nType="-99"/>
        </Node>
        <Node pos="r" depth="1" NCoef="0" IVar="18" Cut="1.4285365343093872e+00" cType="1" res="1.0919738560914993e-02" rms="2.5891166925430298e-01" purity="8.1197553873062134e-01" nType="0">
          <Node pos="l" depth="2" NCoef="0" IVar="-1" Cut="0.0000000000000000e+00" cType="1" res="2.8438501060009003e-02" rms="3.2790866494178772e-01" purity="8.4987765550613403e-01" nType="-99"/>
          <Node pos="r" depth="2" NCoef="0" IVar="-1" Cut="0.0000000000000000e+00" cType="1" res="-1.0633233934640884e-02" rms="4.0827369689941406e-01" purity="6.3979381322860718e-01" nType="-99"/>
        </Node>
      </Node>
    </BinaryTree>
    <BinaryTree type="DecisionTree" boostWeight="1.0000000000000000e+00" itree="18">
      <Node pos="s" depth="0" NCoef="0" IVar="2" Cut="5.4000019073486328e+01" cType="1" res="-1.0504350066184998e-02" rms="3.5390040278434753e-01" purity="4.8533108830451965e-01" nType="0">
        <Node pos="l" depth="1" NCoef="0" IVar="19" Cut="7.1428573131561279e-01" cType="1" res="-1.8359543755650520e-02" rms="1.3339927792549133e-01" purity="2.0277139544487000e-01" nType="0">
          <Node pos="l" depth="2" NCoef="0" IVar="-1" Cut="0.0000000000000000e+00" cType="1" res="-4.1122557595372200e-03" rms="4.1347196698188782e-01" purity="2.8489673137664795e-01" nType="-99"/>
          <Node pos="r" depth="2" NCoef="0" IVar="-1" Cut="0.0000000000000000e+00" cType="1" res="-3.3736322075128555e-02" rms="3.2393974065780640e-01" purity="1.3392472267150879e-01" nType="-99"/>
        </Node>
        <Node pos="r" depth="1" NCoef="0" IVar="0" Cut="1.9911837768554688e+02" cType="1" res="6.6500350832939148e-02" rms="3.1451117992401123e-01" purity="8.4355258941650391e-01" nType="0">
          <Node pos="l" depth="2" NCoef="0" IVar="-1" Cut="0.0000000000000000e+00" cType="1" res="2.6240037754178047e-02" rms="2.9875040054321289e-01" purity="8.5459864139556885e-01" nType="-99"/>
          <Node pos="r" depth="2" NCoef="0" IVar="-1" Cut="0.0000000000000000e+00" cType="1" res="-3.5741504281759262e-02" rms="4.6322304010391235e-01" purity="6.6974985599517822e-01" nType="-99"/>
        </Node>
      </Node>
    </BinaryTree>
    <BinaryTree type="DecisionTree" boostWeight="1.0000000000000000e+00" itree="19">
      <Node pos="s" depth="0" NCoef="0" IVar="2" Cut="5.2000030517578125e+01" cType="1" res="-3.0145137570798397e-03" rms="3.4744754433631897e-01" purity="5.0402259826660156e-01" nType="0">
        <Node pos="l" depth="1" NCoef="0" IVar="5" Cut="4.4881492853164673e-01" cType="1" res="-2.1527737379074097e-02" rms="1.3524270057678223e-01" purity="1.8741706013679504e-01" nType="0">
          <Node pos="l" depth="2" NCoef="0" IVar="-1" Cut="0.0000000000000000e+00" cType="1" res="9.4743294175714254e-04" rms="4.3013066053390503e-01" purity="3.2558909058570862e-01" nType="-99"/>
          <Node pos="r" depth="2" NCoef="0" IVar="-1" Cut="0.0000000000000000e+00" cType="1" res="-2.8367474675178528e-02" rms="3.3444371819496155e-01" purity="1.3632580637931824e-01" nType="-99"/>
        </Node>
        <Node pos="r" depth="1" NCoef="0" IVar="1" Cut="7.4000305175781250e+01" cType="1" res="6.4942881464958191e-02" rms="3.1376287341117859e-01" purity="8.2717490196228027e-01" nType="0">
          <Node pos="l" depth="2" NCoef="0" IVar="-1" Cut="0.0000000000000000e+00" cType="1" res="2.4580342695116997e-02" rms="3.0428427457809448e-01" purity="8.3257883787155151e-01" nType="-99"/>
          <Node pos="r" depth="2" NCoef="0" IVar="-1" Cut="0.0000000000000000e+00" cType="1" res="-3.5617627203464508e-02" rms="4.1923004388809204e-01" purity="7.2953224182128906e-01" nType="-99"/>
        </Node>
      </Node>
    </BinaryTree>
    <BinaryTree type="DecisionTree" boostWeight="1.0000000000000000e+00" itree="20">
      <Node pos="s" depth="0" NCoef="0" IVar="2" Cut="5.1000160217285156e+01" cType="1" res="9.3431090936064720e-03" rms="3.5954165458679199e-01" purity="5.0449335575103760e-01" nType="0">
        <Node pos="l" depth="1" NCoef="0" IVar="21" Cut="1.1190876960754395e+00" cType="1" res="-1.9323833286762238e-02" rms="1.2999442219734192e-01" purity="2.1154688298702240e-01" nType="0">
          <Node pos="l" depth="2" NCoef="0" IVar="-1" Cut="0.0000000000000000e+00" cType="1" res="4.1879212949424982e-04" rms="4.1970080137252808e-01" purity="2.6449155807495117e-01" nType="-99"/>
          <Node pos="r" depth="2" NCoef="0" IVar="-1" Cut="0.0000000000000000e+00" cType="1" res="-2.9507977887988091e-02" rms="3.0875667929649353e-01" purity="1.2927144765853882e-01" nType="-99"/>
        </Node>
        <Node pos="r" depth="1" NCoef="0" IVar="6" Cut="1.7953956127166748e+00" cType="1" res="2.2464240901172161e-03" rms="6.8795643746852875e-02" purity="8.0473041534423828e-01" nType="0">
          <Node pos="l" depth="2" NCoef="0" IVar="-1" Cut="0.0000000000000000e+00" cType="1" res="4.9798190593719482e-02" rms="3.5493490099906921e-01" purity="7.8835785388946533e-01" nType="-99"/>
          <Node pos="r" depth="2" NCoef="0" IVar="-1" Cut="0.0000000000000000e+00" cType="1" res="1.4466386288404465e-02" rms="3.2086265087127686e-01" purity="8.0664318799972534e-01" nType="-99"/>
        </Node>
      </Node>
    </BinaryTree>
    <BinaryTree type="DecisionTree" boostWeight="1.0000000000000000e+00" itree="21">
      <Node pos="s" depth="0" NCoef="0" IVar="2" Cut="5.0000160217285156e+01" cType="1" res="6.0838893987238407e-03" rms="3.6282807588577271e-01" purity="4.9248152971267700e-01" nType="0">
        <Node pos="l" depth="1" NCoef="0" IVar="3" Cut="2.4028530120849609e+01" cType="1" res="9.9830888211727142e-04" rms="4.5668295025825500e-01" purity="2.0856033265590668e-01" nType="0">
          <Node pos="l" depth="2" NCoef="0" IVar="-1" Cut="0.0000000000000000e+00" cType="1" res="-1.8691841512918472e-02" rms="3.4380951523780823e-01" purity="1.5062646567821503e-01" nType="-99"/>
          <Node pos="r" depth="2" NCoef="0" IVar="-1" Cut="0.0000000000000000e+00" cType="1" res="1.4729104004800320e-02" rms="4.8207095265388489e-01" purity="5.6726473569869995e-01" nType="-99"/>
        </Node>
        <Node pos="r" depth="1" NCoef="0" IVar="25" Cut="2.9914027452468872e-01" cType="1" res="5.5809472687542439e-03" rms="8.8294953107833862e-02" purity="7.7543312311172485e-01" nType="0">
          <Node pos="l" depth="2" NCoef="0" IVar="-1" Cut="0.0000000000000000e+00" cType="1" res="4.2182318866252899e-02" rms="3.1783196330070496e-01" purity="8.7346893548965454e-01" nType="-99"/>
          <Node pos="r" depth="2" NCoef="0" IVar="-1" Cut="0.0000000000000000e+00" cType="1" res="8.1313978880643845e-03" rms="3.5839706659317017e-01" purity="7.3482984304428101e-01" nType="-99"/>
        </Node>
      </Node>
    </BinaryTree>
    <BinaryTree type="DecisionTree" boostWeight="1.0000000000000000e+00" itree="22">
      <Node pos="s" depth="0" NCoef="0" IVar="2" Cut="6.9000015258789062e+01" cType="1" res="-3.2842387445271015e-03" rms="3.5141080617904663e-01" purity="4.9456968903541565e-01" nType="0">
        <Node pos="l" depth="1" NCoef="0" IVar="1" Cut="4.8000034332275391e+01" cType="1" res="2.6563188293948770e-04" rms="3.6639285087585449e-01" purity="3.1448721885681152e-01" nType="0">
          <Node pos="l" depth="2" NCoef="0" IVar="-1" Cut="0.0000000000000000e+00" cType="1" res="-1.6989598050713539e-02" rms="3.7534129619598389e-01" purity="2.3697379231452942e-01" nType="-99"/>
          <Node pos="r" depth="2" NCoef="0" IVar="-1" Cut="0.0000000000000000e+00" cType="1" res="1.5600037761032581e-02" rms="4.0603253245353699e-01" purity="6.1742275953292847e-01" nType="-99"/>
        </Node>
        <Node pos="r" depth="1" NCoef="0" IVar="0" Cut="1.9875769042968750e+02" cType="1" res="7.3807857930660248e-02" rms="2.3612789809703827e-01" purity="9.3344634771347046e-01" nType="0">
          <Node pos="l" depth="2" NCoef="0" IVar="-1" Cut="0.0000000000000000e+00" cType="1" res="3.9614897221326828e-02" rms="1.9626653194427490e-01" purity="9.5646685361862183e-01" nType="-99"/>
          <Node pos="r" depth="2" NCoef="0" IVar="-1" Cut="0.0000000000000000e+00" cType="1" res="-2.9413867741823196e-02" rms="4.4357037544250488e-01" purity="7.0361655950546265e-01" nType="-99"/>
        </Node>
      </Node>
    </BinaryTree>
    <BinaryTree type="DecisionTree" boostWeight="1.0000000000000000e+00" itree="23">
      <Node pos="s" depth="0" NCoef="0" IVar="2" Cut="5.0000030517578125e+01" cType="1" res="7.0605999790132046e-03" rms="3.6151885986328125e-01" purity="4.9324855208396912e-01" nType="0">
        <Node pos="l" depth="1" NCoef="0" IVar="0" Cut="7.0233688354492188e+01" cType="1" res="-3.7612099200487137e-02" rms="3.7109234929084778e-01" purity="1.9680051505565643e-01" nType="0">
          <Node pos="l" depth="2" NCoef="0" IVar="-1" Cut="0.0000000000000000e+00" cType="1" res="-5.0580602139234543e-02" rms="1.7270824313163757e-01" purity="3.0785027891397476e-02" nType="-99"/>
          <Node pos="r" depth="2" NCoef="0" IVar="-1" Cut="0.0000000000000000e+00" cType="1" res="-8.1856483593583107e-03" rms="3.8312578201293945e-01" purity="2.1273410320281982e-01" nType="-99"/>
        </Node>
        <Node pos="r" depth="1" NCoef="0" IVar="22" Cut="1.7578113824129105e-02" cType="1" res="1.6758869169279933e-03" rms="6.7094705998897552e-02" purity="7.7866047620773315e-01" nType="0">
          <Node pos="l" depth="2" NCoef="0" IVar="-1" Cut="0.0000000000000000e+00" cType="1" res="1.0131796821951866e-02" rms="3.5375505685806274e-01" purity="7.5202423334121704e-01" nType="-99"/>
          <Node pos="r" depth="2" NCoef="0" IVar="-1" Cut="0.0000000000000000e+00" cType="1" res="6.5164908766746521e-02" rms="2.5276461243629456e-01" purity="9.6209526062011719e-01" nType="-99"/>
        </Node>
      </Node>
    </BinaryTree>
    <BinaryTree type="DecisionTree" boostWeight="1.0000000000000000e+00" itree="24">
      <Node pos="s" depth="0" NCoef="0" IVar="2" Cut="7.0000030517578125e+01" cType="1" res="-1.9299897758173756e-05" rms="3.5735237598419189e-01" purity="4.8676413297653198e-01" nType="0">
        <Node pos="l" depth="1" NCoef="0" IVar="12" Cut="-1.2848861515522003e-01" cType="1" res="-3.0229277908802032e-03" rms="1.3208496570587158e-01" purity="3.2819980382919312e-01" nType="0">
          <Node pos="l" depth="2" NCoef="0" IVar="-1" Cut="0.0000000000000000e+00" cType="1" res="2.8575249016284943e-02" rms="4.3303334712982178e-01" purity="5.1984781026840210e-01" nType="-99"/>
          <Node pos="r" depth="2" NCoef="0" IVar="-1" Cut="0.0000000000000000e+00" cType="1" res="-1.0018154047429562e-02" rms="3.8242137432098389e-01" purity="3.1395986676216125e-01" nType="-99"/>
        </Node>
        <Node pos="r" depth="1" NCoef="0" IVar="0" Cut="1.9962677001953125e+02" cType="1" res="6.6458776593208313e-02" rms="2.4137417972087860e-01" purity="9.3207967281341553e-01" nType="0">
          <Node pos="l" depth="2" NCoef="0" IVar="-1" Cut="0.0000000000000000e+00" cType="1" res="3.7809707224369049e-02" rms="2.0189253985881805e-01" purity="9.5607280731201172e-01" nType="-99"/>
          <Node pos="r" depth="2" NCoef="0" IVar="-1" Cut="0.0000000000000000e+00" cType="1" res="-1.9427049905061722e-02" rms="4.3652540445327759e-01" purity="7.2454500198364258e-01" nType="-99"/>
        </Node>
      </Node>
    </BinaryTree>
    <BinaryTree type="DecisionTree" boostWeight="1.0000000000000000e+00" itree="25">
      <Node pos="s" depth="0" NCoef="0" IVar="21" Cut="7.4038219451904297e-01" cType="1" res="-5.4086302407085896e-03" rms="9.7773857414722443e-02" purity="5.2311331033706665e-01" nType="0">
        <Node pos="l" depth="1" NCoef="0" IVar="0" Cut="7.2233688354492188e+01" cType="1" res="4.9027301371097565e-02" rms="3.5026362538337708e-01" purity="6.1797744035720825e-01" nType="0">
          <Node pos="l" depth="2" NCoef="0" IVar="-1" Cut="0.0000000000000000e+00" cType="1" res="-5.4185915738344193e-02" rms="1.5076975524425507e-01" purity="2.2169867530465126e-02" nType="-99"/>
          <Node pos="r" depth="2" NCoef="0" IVar="-1" Cut="0.0000000000000000e+00" cType="1" res="2.0448887720704079e-02" rms="3.5445138812065125e-01" purity="6.5158826112747192e-01" nType="-99"/>
        </Node>
        <Node pos="r" depth="1" NCoef="0" IVar="0" Cut="1.4219207763671875e+02" cType="1" res="-2.2702161222696304e-02" rms="3.5295212268829346e-01" purity="4.1702806949615479e-01" nType="0">
          <Node pos="l" depth="2" NCoef="0" IVar="-1" Cut="0.0000000000000000e+00" cType="1" res="-1.5941102057695389e-02" rms="3.7410995364189148e-01" purity="2.5063690543174744e-01" nType="-99"/>
          <Node pos="r" depth="2" NCoef="0" IVar="-1" Cut="0.0000000000000000e+00" cType="1" res="2.5150543078780174e-02" rms="2.6301243901252747e-01" purity="9.1637057065963745e-01" nType="-99"/>
        </Node>
      </Node>
    </BinaryTree>
    <BinaryTree type="DecisionTree" boostWeight="1.0000000000000000e+00" itree="26">
      <Node pos="s" depth="0" NCoef="0" IVar="2" Cut="7.3000114440917969e+01" cType="1" res="-7.8904721885919571e-04" rms="3.5429349541664124e-01" purity="4.9280288815498352e-01" nType="0">
        <Node pos="l" depth="1" NCoef="0" IVar="21" Cut="2.3625183105468750e+00" cType="1" res="-2.3984576109796762e-03" rms="1.3106417655944824e-01" purity="3.3829131722450256e-01" nType="0">
          <Node pos="l" depth="2" NCoef="0" IVar="-1" Cut="0.0000000000000000e+00" cType="1" res="-4.7000120393931866e-03" rms="3.9053156971931458e-01" purity="3.5333782434463501e-01" nType="-99"/>
          <Node pos="r" depth="2" NCoef="0" IVar="-1" Cut="0.0000000000000000e+00" cType="1" res="-5.0722222775220871e-02" rms="2.7937740087509155e-01" purity="8.1828013062477112e-02" nType="-99"/>
        </Node>
        <Node pos="r" depth="1" NCoef="0" IVar="0" Cut="1.9896466064453125e+02" cType="1" res="6.2963992357254028e-02" rms="2.2602327167987823e-01" purity="9.4024509191513062e-01" nType="0">
          <Node pos="l" depth="2" NCoef="0" IVar="-1" Cut="0.0000000000000000e+00" cType="1" res="4.0341407060623169e-02" rms="1.7837111651897430e-01" purity="9.6665424108505249e-01" nType="-99"/>
          <Node pos="r" depth="2" NCoef="0" IVar="-1" Cut="0.0000000000000000e+00" cType="1" res="-2.1430447697639465e-02" rms="4.3491980433464050e-01" purity="7.2398912906646729e-01" nType="-99"/>
        </Node>
      </Node>
    </BinaryTree>
    <BinaryTree type="DecisionTree" boostWeight="1.0000000000000000e+00" itree="27">
      <Node pos="s" depth="0" NCoef="0" IVar="2" Cut="6.6000114440917969e+01" cType="1" res="-1.0747442021965981e-02" rms="3.4186148643493652e-01" purity="4.8784458637237549e-01" nType="0">
        <Node pos="l" depth="1" NCoef="0" IVar="1" Cut="5.1000076293945312e+01" cType="1" res="1.4376501739025116e-01" rms="-nan" purity="2.8200018405914307e-01" nType="0">
          <Node pos="l" depth="2" NCoef="0" IVar="-1" Cut="0.0000000000000000e+00" cType="1" res="-1.6358014196157455e-02" rms="3.6774531006813049e-01" purity="2.2375889122486115e-01" nType="-99"/>
          <Node pos="r" depth="2" NCoef="0" IVar="-1" Cut="0.0000000000000000e+00" cType="1" res="1.5939550474286079e-02" rms="4.1887676715850830e-01" purity="6.4180767536163330e-01" nType="-99"/>
        </Node>
        <Node pos="r" depth="1" NCoef="0" IVar="0" Cut="1.9814147949218750e+02" cType="1" res="4.7668185085058212e-02" rms="2.3933017253875732e-01" purity="9.2930394411087036e-01" nType="0">
          <Node pos="l" depth="2" NCoef="0" IVar="-1" Cut="0.0000000000000000e+00" cType="1" res="3.1545285135507584e-02" rms="2.0750299096107483e-01" purity="9.4969058036804199e-01" nType="-99"/>
          <Node pos="r" depth="2" NCoef="0" IVar="-1" Cut="0.0000000000000000e+00" cType="1" res="-2.8690598905086517e-02" rms="4.4285219907760620e-01" purity="6.9916868209838867e-01" nType="-99"/>
        </Node>
      </Node>
    </BinaryTree>
    <BinaryTree type="DecisionTree" boostWeight="1.0000000000000000e+00" itree="28">
      <Node pos="s" depth="0" NCoef="0" IVar="10" Cut="2.0811371803283691e+00" cType="1" res="3.8360443431884050e-04" rms="1.2082853913307190e-01" purity="5.0638031959533691e-01" nType="0">
        <Node pos="l" depth="1" NCoef="0" IVar="2" Cut="3.0000028610229492e+01" cType="1" res="2.4787979200482368e-02" rms="3.6764729022979736e-01" purity="5.2456808090209961e-01" nType="0">
          <Node pos="l" depth="2" NCoef="0" IVar="-1" Cut="0.0000000000000000e+00" cType="1" res="-2.6123501360416412e-02" rms="3.1243059039115906e-01" purity="1.2335205823183060e-01" nType="-99"/>
          <Node pos="r" depth="2" NCoef="0" IVar="-1" Cut="0.0000000000000000e+00" cType="1" res="1.1214694008231163e-02" rms="3.7017890810966492e-01" purity="5.5320513248443604e-01" nType="-99"/>
        </Node>
        <Node pos="r" depth="1" NCoef="0" IVar="4" Cut="3.0003600120544434e+00" cType="1" res="-1.8157940357923508e-02" rms="4.7549124807119370e-02" purity="1.6640943288803101e-01" nType="0">
          <Node pos="l" depth="2" NCoef="0" IVar="-1" Cut="0.0000000000000000e+00" cType="1" res="-2.8081942349672318e-02" rms="3.4082365036010742e-01" purity="2.5352504849433899e-01" nType="-99"/>
          <Node pos="r" depth="2" NCoef="0" IVar="-1" Cut="0.0000000000000000e+00" cType="1" res="-5.9062030166387558e-02" rms="1.9924922287464142e-01" purity="7.7565997838973999e-02" nType="-99"/>
        </Node>
      </Node>
    </BinaryTree>
    <BinaryTree type="DecisionTree" boostWeight="1.0000000000000000e+00" itree="29">
      <Node pos="s" depth="0" NCoef="0" IVar="0" Cut="9.8253868103027344e+01" cType="1" res="3.6879656836390495e-03" rms="3.4451842308044434e-01" purity="5.1019358634948730e-01" nType="0">
        <Node pos="l" depth="1" NCoef="0" IVar="6" Cut="2.9921749234199524e-01" cType="1" res="-1.7135564237833023e-02" rms="1.4696711301803589e-01" purity="1.3363133370876312e-01" nType="0">
          <Node pos="l" depth="2" NCoef="0" IVar="-1" Cut="0.0000000000000000e+00" cType="1" res="3.0972169712185860e-02" rms="4.2547366023063660e-01" purity="2.4508519470691681e-01" nType="-99"/>
          <Node pos="r" depth="2" NCoef="0" IVar="-1" Cut="0.0000000000000000e+00" cType="1" res="-1.8991759046912193e-02" rms="3.2610407471656799e-01" purity="1.2476601451635361e-01" nType="-99"/>
        </Node>
        <Node pos="r" depth="1" NCoef="0" IVar="22" Cut="2.3439351469278336e-02" cType="1" res="8.0326367169618607e-03" rms="2.5207370519638062e-01" purity="7.2150260210037231e-01" nType="0">
          <Node pos="l" depth="2" NCoef="0" IVar="-1" Cut="0.0000000000000000e+00" cType="1" res="6.6022863611578941e-03" rms="3.4737998247146606e-01" purity="7.0369595289230347e-01" nType="-99"/>
          <Node pos="r" depth="2" NCoef="0" IVar="-1" Cut="0.0000000000000000e+00" cType="1" res="5.8281216770410538e-02" rms="2.9831588268280029e-01" purity="9.2283445596694946e-01" nType="-99"/>
        </Node>
      </Node>
    </BinaryTree>
    <BinaryTree type="DecisionTree" boostWeight="1.0000000000000000e+00" itree="30">
      <Node pos="s" depth="0" NCoef="0" IVar="19" Cut="1.1904698610305786e+00" cType="1" res="-7.0542972534894943e-03" rms="8.0960929393768311e-02" purity="5.0074750185012817e-01" nType="0">
        <Node pos="l" depth="1" NCoef="0" IVar="0" Cut="7.9914978027343750e+01" cType="1" res="1.6713134944438934e-02" rms="3.3929961919784546e-01" purity="5.7944238185882568e-01" nType="0">
          <Node pos="l" depth="2" NCoef="0" IVar="-1" Cut="0.0000000000000000e+00" cType="1" res="-3.5975620150566101e-02" rms="2.5629580020904541e-01" purity="7.0699416100978851e-02" nType="-99"/>
          <Node pos="r" depth="2" NCoef="0" IVar="-1" Cut="0.0000000000000000e+00" cType="1" res="1.2558237649500370e-02" rms="3.4669205546379089e-01" purity="6.5722709894180298e-01" nType="-99"/>
        </Node>
        <Node pos="r" depth="1" NCoef="0" IVar="2" Cut="7.1000328063964844e+01" cType="1" res="-7.1730546653270721e-02" rms="3.1668296456336975e-01" purity="3.1554424762725830e-01" nType="0">
          <Node pos="l" depth="2" NCoef="0" IVar="-1" Cut="0.0000000000000000e+00" cType="1" res="-3.3663347363471985e-02" rms="3.2346701622009277e-01" purity="1.6980150341987610e-01" nType="-99"/>
          <Node pos="r" depth="2" NCoef="0" IVar="-1" Cut="0.0000000000000000e+00" cType="1" res="2.1799381822347641e-02" rms="2.5454741716384888e-01" purity="9.1989988088607788e-01" nType="-99"/>
        </Node>
      </Node>
    </BinaryTree>
    <BinaryTree type="DecisionTree" boostWeight="1.0000000000000000e+00" itree="31">
      <Node pos="s" depth="0" NCoef="0" IVar="0" Cut="7.3914978027343750e+01" cType="1" res="8.6518265306949615e-03" rms="3.5446175932884216e-01" purity="5.0094050168991089e-01" nType="0">
        <Node pos="l" depth="1" NCoef="0" IVar="0" Cut="6.9914978027343750e+01" cType="1" res="-9.7468525171279907e-02" rms="2.0454069972038269e-01" purity="4.2930949479341507e-02" nType="0">
          <Node pos="l" depth="2" NCoef="0" IVar="-1" Cut="0.0000000000000000e+00" cType="1" res="-2.4484165012836456e-02" rms="2.6527723670005798e-01" purity="7.6710067689418793e-02" nType="-99"/>
          <Node pos="r" depth="2" NCoef="0" IVar="-1" Cut="0.0000000000000000e+00" cType="1" res="-5.9124354273080826e-02" rms="2.6066159829497337e-02" purity="0.0000000000000000e+00" nType="-99"/>
        </Node>
        <Node pos="r" depth="1" NCoef="0" IVar="1" Cut="3.6000000000000000e+01" cType="1" res="1.7513588070869446e-02" rms="3.6279824376106262e-01" purity="5.3918737173080444e-01" nType="0">
          <Node pos="l" depth="2" NCoef="0" IVar="-1" Cut="0.0000000000000000e+00" cType="1" res="2.1989507600665092e-02" rms="4.1646963357925415e-01" purity="4.6255972981452942e-01" nType="-99"/>
          <Node pos="r" depth="2" NCoef="0" IVar="-1" Cut="0.0000000000000000e+00" cType="1" res="5.5410109780495986e-05" rms="3.4117165207862854e-01" purity="5.6488174200057983e-01" nType="-99"/>
        </Node>
      </Node>
    </BinaryTree>
    <BinaryTree type="DecisionTree" boostWeight="1.0000000000000000e+00" itree="32">
      <Node pos="s" depth="0" NCoef="0" IVar="1" Cut="4.9000083923339844e+01" cType="1" res="6.8212794139981270e-03" rms="3.5533258318901062e-01" purity="5.0037610530853271e-01" nType="0">
        <Node pos="l" depth="1" NCoef="0" IVar="2" Cut="7.6000114440917969e+01" cType="1" res="-1.1960074305534363e-02" rms="3.6096504330635071e-01" purity="3.7858501076698303e-01" nType="0">
          <Node pos="l" depth="2" NCoef="0" IVar="-1" Cut="0.0000000000000000e+00" cType="1" res="-7.9121394082903862e-03" rms="3.8016515970230103e-01" purity="2.8165659308433533e-01" nType="-99"/>
          <Node pos="r" depth="2" NCoef="0" IVar="-1" Cut="0.0000000000000000e+00" cType="1" res="3.4195404499769211e-02" rms="1.9732780754566193e-01" purity="9.5738774538040161e-01" nType="-99"/>
        </Node>
        <Node pos="r" depth="1" NCoef="0" IVar="0" Cut="1.9008984375000000e+02" cType="1" res="5.3333811461925507e-02" rms="3.3650061488151550e-01" purity="8.0199521780014038e-01" nType="0">
          <Node pos="l" depth="2" NCoef="0" IVar="-1" Cut="0.0000000000000000e+00" cType="1" res="2.7749840170145035e-02" rms="3.2106500864028931e-01" purity="8.1182587146759033e-01" nType="-99"/>
          <Node pos="r" depth="2" NCoef="0" IVar="-1" Cut="0.0000000000000000e+00" cType="1" res="-4.4274944812059402e-02" rms="4.2441734671592712e-01" purity="7.0423042774200439e-01" nType="-99"/>
        </Node>
      </Node>
    </BinaryTree>
    <BinaryTree type="DecisionTree" boostWeight="1.0000000000000000e+00" itree="33">
      <Node pos="s" depth="0" NCoef="0" IVar="5" Cut="4.4879683852195740e-01" cType="1" res="-6.0486712027341127e-04" rms="1.0289553552865982e-01" purity="5.1089769601821899e-01" nType="0">
        <Node pos="l" depth="1" NCoef="0" IVar="1" Cut="3.2000389099121094e+01" cType="1" res="4.2598798871040344e-02" rms="3.4101423621177673e-01" purity="6.9771105051040649e-01" nType="0">
          <Node pos="l" depth="2" NCoef="0" IVar="-1" Cut="0.0000000000000000e+00" cType="1" res="4.5738913118839264e-02" rms="4.0912312269210815e-01" purity="6.2274456024169922e-01" nType="-99"/>
          <Node pos="r" depth="2" NCoef="0" IVar="-1" Cut="0.0000000000000000e+00" cType="1" res="1.1687730439007282e-02" rms="3.2979151606559753e-01" purity="7.0714676380157471e-01" nType="-99"/>
        </Node>
        <Node pos="r" depth="1" NCoef="0" IVar="1" Cut="4.8000000000000000e+01" cType="1" res="-1.9727360457181931e-02" rms="3.5079050064086914e-01" purity="3.7151393294334412e-01" nType="0">
          <Node pos="l" depth="2" NCoef="0" IVar="-1" Cut="0.0000000000000000e+00" cType="1" res="-1.2172495014965534e-02" rms="3.5557851195335388e-01" purity="2.5257390737533569e-01" nType="-99"/>
          <Node pos="r" depth="2" NCoef="0" IVar="-1" Cut="0.0000000000000000e+00" cType="1" res="9.0245446190237999e-03" rms="3.3282864093780518e-01" purity="7.1387165784835815e-01" nType="-99"/>
        </Node>
      </Node>
    </BinaryTree>
    <BinaryTree type="DecisionTree" boostWeight="1.0000000000000000e+00" itree="34">
      <Node pos="s" depth="0" NCoef="0" IVar="1" Cut="4.6000034332275391e+01" cType="1" res="6.0877171345055103e-03" rms="3.5007300972938538e-01" purity="5.0346988439559937e-01" nType="0">
        <Node pos="l" depth="1" NCoef="0" IVar="3" Cut="4.3030136108398438e+01" cType="1" res="-1.6392851248383522e-02" rms="3.4785947203636169e-01" purity="3.7988409399986267e-01" nType="0">
          <Node pos="l" depth="2" NCoef="0" IVar="-1" Cut="0.0000000000000000e+00" cType="1" res="-1.1081998236477375e-02" rms="3.5861644148826599e-01" purity="2.8374600410461426e-01" nType="-99"/>
          <Node pos="r" depth="2" NCoef="0" IVar="-1" Cut="0.0000000000000000e+00" cType="1" res="3.2660264521837234e-02" rms="2.6297825574874878e-01" purity="9.1540217399597168e-01" nType="-99"/>
        </Node>
        <Node pos="r" depth="1" NCoef="0" IVar="2" Cut="4.0000019073486328e+01" cType="1" res="4.9235865473747253e-02" rms="3.5026356577873230e-01" purity="7.4067467451095581e-01" nType="0">
          <Node pos="l" depth="2" NCoef="0" IVar="-1" Cut="0.0000000000000000e+00" cType="1" res="5.5282637476921082e-02" rms="4.8933795094490051e-01" purity="5.3901964426040649e-01" nType="-99"/>
          <Node pos="r" depth="2" NCoef="0" IVar="-1" Cut="0.0000000000000000e+00" cType="1" res="9.4578322023153305e-03" rms="3.1348907947540283e-01" purity="7.7524214982986450e-01" nType="-99"/>
        </Node>
      </Node>
    </BinaryTree>
    <BinaryTree type="DecisionTree" boostWeight="1.0000000000000000e+00" itree="35">
      <Node pos="s" depth="0" NCoef="0" IVar="2" Cut="6.4000030517578125e+01" cType="1" res="-1.5050257556140423e-02" rms="3.3312818408012390e-01" purity="4.8845344781875610e-01" nType="0">
        <Node pos="l" depth="1" NCoef="0" IVar="19" Cut="1.1904766559600830e+00" cType="1" res="-9.4642443582415581e-03" rms="9.0888299047946930e-02" purity="2.6217791438102722e-01" nType="0">
          <Node pos="l" depth="2" NCoef="0" IVar="-1" Cut="0.0000000000000000e+00" cType="1" res="-4.6345372684299946e-03" rms="3.8756287097930908e-01" purity="3.2874736189842224e-01" nType="-99"/>
          <Node pos="r" depth="2" NCoef="0" IVar="-1" Cut="0.0000000000000000e+00" cType="1" res="-2.8832988813519478e-02" rms="3.2433760166168213e-01" purity="1.3826891779899597e-01" nType="-99"/>
        </Node>
        <Node pos="r" depth="1" NCoef="0" IVar="1" Cut="7.2000305175781250e+01" cType="1" res="3.0438572168350220e-02" rms="2.4668462574481964e-01" purity="9.2205846309661865e-01" nType="0">
          <Node pos="l" depth="2" NCoef="0" IVar="-1" Cut="0.0000000000000000e+00" cType="1" res="2.3125568404793739e-02" rms="2.2821408510208130e-01" purity="9.3518036603927612e-01" nType="-99"/>
          <Node pos="r" depth="2" NCoef="0" IVar="-1" Cut="0.0000000000000000e+00" cType="1" res="-4.9472257494926453e-02" rms="3.7483388185501099e-01" purity="7.7407222986221313e-01" nType="-99"/>
        </Node>
      </Node>
    </BinaryTree>
    <BinaryTree type="DecisionTree" boostWeight="1.0000000000000000e+00" itree="36">
      <Node pos="s" depth="0" NCoef="0" IVar="4" Cut="2.6118981838226318e+00" cType="1" res="-3.3657532185316086e-03" rms="9.2480719089508057e-02" purity="4.7668567299842834e-01" nType="0">
        <Node pos="l" depth="1" NCoef="0" IVar="6" Cut="2.2442190647125244e+00" cType="1" res="-1.5173763968050480e-03" rms="9.8891481757164001e-02" purity="4.1817972064018250e-01" nType="0">
          <Node pos="l" depth="2" NCoef="0" IVar="-1" Cut="0.0000000000000000e+00" cType="1" res="-1.7835322767496109e-02" rms="3.1982082128524780e-01" purity="4.1294309496879578e-01" nType="-99"/>
          <Node pos="r" depth="2" NCoef="0" IVar="-1" Cut="0.0000000000000000e+00" cType="1" res="-6.0362204909324646e-02" rms="3.4224972128868103e-01" purity="4.2277514934539795e-01" nType="-99"/>
        </Node>
        <Node pos="r" depth="1" NCoef="0" IVar="19" Cut="2.2619047164916992e+00" cType="1" res="-1.3488925760611892e-03" rms="1.0950004309415817e-01" purity="4.8070853948593140e-01" nType="0">
          <Node pos="l" depth="2" NCoef="0" IVar="-1" Cut="0.0000000000000000e+00" cType="1" res="2.1095820702612400e-03" rms="3.4882378578186035e-01" purity="5.0458317995071411e-01" nType="-99"/>
          <Node pos="r" depth="2" NCoef="0" IVar="-1" Cut="0.0000000000000000e+00" cType="1" res="-4.2430810630321503e-02" rms="2.7773934602737427e-01" purity="1.1905631422996521e-01" nType="-99"/>
        </Node>
      </Node>
    </BinaryTree>
    <BinaryTree type="DecisionTree" boostWeight="1.0000000000000000e+00" itree="37">
      <Node pos="s" depth="0" NCoef="0" IVar="18" Cut="2.1428420543670654e+00" cType="1" res="-2.2200809326022863e-03" rms="9.2184267938137054e-02" purity="5.2009522914886475e-01" nType="0">
        <Node pos="l" depth="1" NCoef="0" IVar="0" Cut="9.8233688354492188e+01" cType="1" res="2.1516343578696251e-02" rms="3.4664663672447205e-01" purity="5.4842525720596313e-01" nType="0">
          <Node pos="l" depth="2" NCoef="0" IVar="-1" Cut="0.0000000000000000e+00" cType="1" res="-6.6598197445273399e-03" rms="3.5071104764938354e-01" purity="1.5242215991020203e-01" nType="-99"/>
          <Node pos="r" depth="2" NCoef="0" IVar="-1" Cut="0.0000000000000000e+00" cType="1" res="1.5443134121596813e-02" rms="3.4269049763679504e-01" purity="7.5408273935317993e-01" nType="-99"/>
        </Node>
        <Node pos="r" depth="1" NCoef="0" IVar="2" Cut="3.9002182006835938e+01" cType="1" res="-7.0861600339412689e-02" rms="3.1537023186683655e-01" purity="1.8596294522285461e-01" nType="0">
          <Node pos="l" depth="2" NCoef="0" IVar="-1" Cut="0.0000000000000000e+00" cType="1" res="1.8464345484972000e-02" rms="3.6168903112411499e-01" purity="1.7846472561359406e-01" nType="-99"/>
          <Node pos="r" depth="2" NCoef="0" IVar="-1" Cut="0.0000000000000000e+00" cType="1" res="-4.4227343052625656e-02" rms="2.7658396959304810e-01" purity="1.8944525718688965e-01" nType="-99"/>
        </Node>
      </Node>
    </BinaryTree>
    <BinaryTree type="DecisionTree" boostWeight="1.0000000000000000e+00" itree="38">
      <Node pos="s" depth="0" NCoef="0" IVar="15" Cut="4.4879770278930664e-01" cType="1" res="-4.6118223108351231e-03" rms="8.2417182624340057e-02" purity="4.9945414066314697e-01" nType="0">
        <Node pos="l" depth="1" NCoef="0" IVar="6" Cut="1.7951972484588623e+00" cType="1" res="-3.9479602128267288e-03" rms="8.4925144910812378e-02" purity="4.8216199874877930e-01" nType="0">
          <Node pos="l" depth="2" NCoef="0" IVar="-1" Cut="0.0000000000000000e+00" cType="1" res="1.5254997648298740e-02" rms="3.7098899483680725e-01" purity="2.8962749242782593e-01" nType="-99"/>
          <Node pos="r" depth="2" NCoef="0" IVar="-1" Cut="0.0000000000000000e+00" cType="1" res="-7.5636650435626507e-03" rms="3.3728381991386414e-01" purity="5.4353010654449463e-01" nType="-99"/>
        </Node>
        <Node pos="r" depth="1" NCoef="0" IVar="22" Cut="2.0466741174459457e-02" cType="1" res="-1.4288288541138172e-02" rms="4.6488638967275620e-02" purity="7.0166808366775513e-01" nType="0">
          <Node pos="l" depth="2" NCoef="0" IVar="-1" Cut="0.0000000000000000e+00" cType="1" res="5.0978055223822594e-03" rms="3.0834570527076721e-01" purity="6.9646805524826050e-01" nType="-99"/>
          <Node pos="r" depth="2" NCoef="0" IVar="-1" Cut="0.0000000000000000e+00" cType="1" res="4.6703338623046875e-02" rms="3.5103973746299744e-01" purity="7.0561933517456055e-01" nType="-99"/>
        </Node>
      </Node>
    </BinaryTree>
    <BinaryTree type="DecisionTree" boostWeight="1.0000000000000000e+00" itree="39">
      <Node pos="s" depth="0" NCoef="0" IVar="18" Cut="7.1428167819976807e-01" cType="1" res="8.4310013335198164e-04" rms="1.0737990587949753e-01" purity="5.0939369201660156e-01" nType="0">
        <Node pos="l" depth="1" NCoef="0" IVar="18" Cut="1.3605234026908875e-01" cType="1" res="2.3942114785313606e-04" rms="1.0713738948106766e-01" purity="6.1455249786376953e-01" nType="0">
          <Node pos="l" depth="2" NCoef="0" IVar="-1" Cut="0.0000000000000000e+00" cType="1" res="1.1294091818854213e-03" rms="3.0393224954605103e-01" purity="6.1546212434768677e-01" nType="-99"/>
          <Node pos="r" depth="2" NCoef="0" IVar="-1" Cut="0.0000000000000000e+00" cType="1" res="1.8781244754791260e-02" rms="3.7029165029525757e-01" purity="6.1365634202957153e-01" nType="-99"/>
        </Node>
        <Node pos="r" depth="1" NCoef="0" IVar="0" Cut="1.3219207763671875e+02" cType="1" res="-3.2634187489748001e-02" rms="3.2911148667335510e-01" purity="3.9321643114089966e-01" nType="0">
          <Node pos="l" depth="2" NCoef="0" IVar="-1" Cut="0.0000000000000000e+00" cType="1" res="-2.0529378205537796e-02" rms="3.4614428877830505e-01" purity="1.7167653143405914e-01" nType="-99"/>
          <Node pos="r" depth="2" NCoef="0" IVar="-1" Cut="0.0000000000000000e+00" cType="1" res="1.2979475781321526e-02" rms="2.7706706523895264e-01" purity="9.0388965606689453e-01" nType="-99"/>
        </Node>
      </Node>
    </BinaryTree>
    <BinaryTree type="DecisionTree" boostWeight="1.0000000000000000e+00" itree="40">
      <Node pos="s" depth="0" NCoef="0" IVar="0" Cut="1.9925387573242188e+02" cType="1" res="7.6341582462191582e-03" rms="3.6019280552864075e-01" purity="4.8751050233840942e-01" nType="0">
        <Node pos="l" depth="1" NCoef="0" IVar="15" Cut="-1.4970071613788605e-01" cType="1" res="6.4932988025248051e-03" rms="1.2889741361141205e-01" purity="4.8304328322410583e-01" nType="0">
          <Node pos="l" depth="2" NCoef="0" IVar="-1" Cut="0.0000000000000000e+00" cType="1" res="3.4253206104040146e-02" rms="3.6994192004203796e-01" purity="6.7793941497802734e-01" nType="-99"/>
          <Node pos="r" depth="2" NCoef="0" IVar="-1" Cut="0.0000000000000000e+00" cType="1" res="1.5632020076736808e-03" rms="3.5446593165397644e-01" purity="4.6581339836120605e-01" nType="-99"/>
        </Node>
        <Node pos="r" depth="1" NCoef="0" IVar="-1" Cut="0.0000000000000000e+00" cType="1" res="-4.1300524026155472e-02" rms="4.5422819256782532e-01" purity="6.5557008981704712e-01" nType="-99"/>
      </Node>
    </BinaryTree>
    <BinaryTree type="DecisionTree" boostWeight="1.0000000000000000e+00" itree="41">
      <Node pos="s" depth="0" NCoef="0" IVar="19" Cut="2.3809378147125244e+00" cType="1" res="1.3445544755086303e-03" rms="1.0712016373872757e-01" purity="5.1673620939254761e-01" nType="0">
        <Node pos="l" depth="1" NCoef="0" IVar="0" Cut="1.9691497802734375e+02" cType="1" res="2.0040869712829590e-02" rms="3.5317820310592651e-01" purity="5.3425723314285278e-01" nType="0">
          <Node pos="l" depth="2" NCoef="0" IVar="-1" Cut="0.0000000000000000e+00" cType="1" res="8.9131454005837440e-03" rms="3.5001870989799500e-01" purity="5.3002071380615234e-01" nType="-99"/>
          <Node pos="r" depth="2" NCoef="0" IVar="-1" Cut="0.0000000000000000e+00" cType="1" res="-3.5332649946212769e-02" rms="4.3262705206871033e-01" purity="6.8678951263427734e-01" nType="-99"/>
        </Node>
        <Node pos="r" depth="1" NCoef="0" IVar="-1" Cut="0.0000000000000000e+00" cType="1" res="-4.4758014380931854e-02" rms="2.5343623757362366e-01" purity="9.5594957470893860e-02" nType="-99"/>
      </Node>
    </BinaryTree>
    <BinaryTree type="DecisionTree" boostWeight="1.0000000000000000e+00" itree="42">
      <Node pos="s" depth="0" NCoef="0" IVar="1" Cut="7.9000030517578125e+01" cType="1" res="-2.9428829438984394e-03" rms="3.4743139147758484e-01" purity="4.8806470632553101e-01" nType="0">
        <Node pos="l" depth="1" NCoef="0" IVar="0" Cut="1.4091497802734375e+02" cType="1" res="1.6622667317278683e-04" rms="3.4476760029792786e-01" purity="4.8301583528518677e-01" nType="0">
          <Node pos="l" depth="2" NCoef="0" IVar="-1" Cut="0.0000000000000000e+00" cType="1" res="-4.2552277445793152e-03" rms="3.7879624962806702e-01" purity="3.1149235367774963e-01" nType="-99"/>
          <Node pos="r" depth="2" NCoef="0" IVar="-1" Cut="0.0000000000000000e+00" cType="1" res="2.0966831594705582e-02" rms="2.2717927396297455e-01" purity="9.3996286392211914e-01" nType="-99"/>
        </Node>
        <Node pos="r" depth="1" NCoef="0" IVar="-1" Cut="0.0000000000000000e+00" cType="1" res="-3.9770122617483139e-02" rms="4.1898342967033386e-01" purity="6.7580407857894897e-01" nType="-99"/>
      </Node>
    </BinaryTree>
    <BinaryTree type="DecisionTree" boostWeight="1.0000000000000000e+00" itree="43">
      <Node pos="s" depth="0" NCoef="0" IVar="1" Cut="3.6000076293945312e+01" cType="1" res="8.7899146601557732e-03" rms="3.4911939501762390e-01" purity="5.0713127851486206e-01" nType="0">
        <Node pos="l" depth="1" NCoef="0" IVar="13" Cut="-1.6455329656600952e+00" cType="1" res="-2.1956749260425568e-03" rms="1.7161384224891663e-01" purity="3.9049297571182251e-01" nType="0">
          <Node pos="l" depth="2" NCoef="0" IVar="-1" Cut="0.0000000000000000e+00" cType="1" res="4.8794534057378769e-02" rms="4.3769642710685730e-01" purity="4.7039270401000977e-01" nType="-99"/>
          <Node pos="r" depth="2" NCoef="0" IVar="-1" Cut="0.0000000000000000e+00" cType="1" res="5.5040083825588226e-03" rms="3.6865305900573730e-01" purity="3.6061346530914307e-01" nType="-99"/>
        </Node>
        <Node pos="r" depth="1" NCoef="0" IVar="0" Cut="1.2370770263671875e+02" cType="1" res="-9.3667311593890190e-03" rms="3.2631117105484009e-01" purity="5.5871957540512085e-01" nType="0">
          <Node pos="l" depth="2" NCoef="0" IVar="-1" Cut="0.0000000000000000e+00" cType="1" res="-1.3561998493969440e-02" rms="3.6864197254180908e-01" purity="2.1990934014320374e-01" nType="-99"/>
          <Node pos="r" depth="2" NCoef="0" IVar="-1" Cut="0.0000000000000000e+00" cType="1" res="1.2938019819557667e-02" rms="2.7177783846855164e-01" purity="9.0634316205978394e-01" nType="-99"/>
        </Node>
      </Node>
    </BinaryTree>
    <BinaryTree type="DecisionTree" boostWeight="1.0000000000000000e+00" itree="44">
      <Node pos="s" depth="0" NCoef="0" IVar="2" Cut="2.9000112533569336e+01" cType="1" res="6.2208683229982853e-03" rms="3.5217532515525818e-01" purity="5.0236552953720093e-01" nType="0">
        <Node pos="l" depth="1" NCoef="0" IVar="1" Cut="3.7000034332275391e+01" cType="1" res="1.9910006225109100e-01" rms="-nan" purity="2.8928449749946594e-01" nType="0">
          <Node pos="l" depth="2" NCoef="0" IVar="-1" Cut="0.0000000000000000e+00" cType="1" res="1.4230688102543354e-03" rms="3.4743508696556091e-01" purity="1.5303573012351990e-01" nType="-99"/>
          <Node pos="r" depth="2" NCoef="0" IVar="-1" Cut="0.0000000000000000e+00" cType="1" res="8.4594674408435822e-02" rms="4.9539920687675476e-01" purity="4.8265424370765686e-01" nType="-99"/>
        </Node>
        <Node pos="r" depth="1" NCoef="0" IVar="15" Cut="4.4881743192672729e-01" cType="1" res="-3.6949128843843937e-03" rms="9.8220482468605042e-02" purity="5.1748722791671753e-01" nType="0">
          <Node pos="l" depth="2" NCoef="0" IVar="-1" Cut="0.0000000000000000e+00" cType="1" res="-3.3820734824985266e-03" rms="3.4272786974906921e-01" purity="5.0013113021850586e-01" nType="-99"/>
          <Node pos="r" depth="2" NCoef="0" IVar="-1" Cut="0.0000000000000000e+00" cType="1" res="3.2141387462615967e-02" rms="3.5283547639846802e-01" purity="7.2518670558929443e-01" nType="-99"/>
        </Node>
      </Node>
    </BinaryTree>
    <BinaryTree type="DecisionTree" boostWeight="1.0000000000000000e+00" itree="45">
      <Node pos="s" depth="0" NCoef="0" IVar="15" Cut="-1.4961458742618561e-01" cType="1" res="-6.7170790862292051e-04" rms="1.0272195935249329e-01" purity="4.8782160878181458e-01" nType="0">
        <Node pos="l" depth="1" NCoef="0" IVar="2" Cut="4.4000160217285156e+01" cType="1" res="7.1091197431087494e-02" rms="3.4601688385009766e-01" purity="7.2835427522659302e-01" nType="0">
          <Node pos="l" depth="2" NCoef="0" IVar="-1" Cut="0.0000000000000000e+00" cType="1" res="-7.8123700805008411e-03" rms="3.8011422753334045e-01" purity="2.8278735280036926e-01" nType="-99"/>
          <Node pos="r" depth="2" NCoef="0" IVar="-1" Cut="0.0000000000000000e+00" cType="1" res="4.8843756318092346e-02" rms="3.2539775967597961e-01" purity="8.9088881015777588e-01" nType="-99"/>
        </Node>
        <Node pos="r" depth="1" NCoef="0" IVar="2" Cut="7.1000030517578125e+01" cType="1" res="-1.9911505281925201e-02" rms="3.3712956309318542e-01" purity="4.6155038475990295e-01" nType="0">
          <Node pos="l" depth="2" NCoef="0" IVar="-1" Cut="0.0000000000000000e+00" cType="1" res="-1.2368966825306416e-02" rms="3.6535689234733582e-01" purity="2.9858410358428955e-01" nType="-99"/>
          <Node pos="r" depth="2" NCoef="0" IVar="-1" Cut="0.0000000000000000e+00" cType="1" res="1.8144432455301285e-02" rms="2.2963872551918030e-01" purity="9.3515419960021973e-01" nType="-99"/>
        </Node>
      </Node>
    </BinaryTree>
    <BinaryTree type="DecisionTree" boostWeight="1.0000000000000000e+00" itree="46">
      <Node pos="s" depth="0" NCoef="0" IVar="17" Cut="3.1375043094158173e-02" cType="1" res="-2.5910742115229368e-03" rms="9.0691432356834412e-02" purity="5.1542222499847412e-01" nType="0">
        <Node pos="l" depth="1" NCoef="0" IVar="10" Cut="1.8060328960418701e+00" cType="1" res="-1.3900076737627387e-03" rms="9.1525264084339142e-02" purity="5.3018987178802490e-01" nType="0">
          <Node pos="l" depth="2" NCoef="0" IVar="-1" Cut="0.0000000000000000e+00" cType="1" res="5.5201658979058266e-03" rms="3.4078696370124817e-01" purity="5.5529546737670898e-01" nType="-99"/>
          <Node pos="r" depth="2" NCoef="0" IVar="-1" Cut="0.0000000000000000e+00" cType="1" res="-2.4108085781335831e-02" rms="2.9671081900596619e-01" purity="2.6369696855545044e-01" nType="-99"/>
        </Node>
        <Node pos="r" depth="1" NCoef="0" IVar="-1" Cut="0.0000000000000000e+00" cType="1" res="-5.2725065499544144e-02" rms="2.2734336555004120e-01" purity="1.3691800832748413e-01" nType="-99"/>
      </Node>
    </BinaryTree>
    <BinaryTree type="DecisionTree" boostWeight="1.0000000000000000e+00" itree="47">
      <Node pos="s" depth="0" NCoef="0" IVar="0" Cut="7.3914978027343750e+01" cType="1" res="1.2963234446942806e-02" rms="3.5201388597488403e-01" purity="5.0856238603591919e-01" nType="0">
        <Node pos="l" depth="1" NCoef="0" IVar="1" Cut="3.4000034332275391e+01" cType="1" res="7.3737573984544724e-05" rms="4.2617864906787872e-02" purity="4.2919717729091644e-02" nType="0">
          <Node pos="l" depth="2" NCoef="0" IVar="-1" Cut="0.0000000000000000e+00" cType="1" res="-5.1735371351242065e-02" rms="1.0951301455497742e-01" purity="1.2801615521311760e-02" nType="-99"/>
          <Node pos="r" depth="2" NCoef="0" IVar="-1" Cut="0.0000000000000000e+00" cType="1" res="-1.0333076119422913e-02" rms="2.9869690537452698e-01" purity="1.0421704500913620e-01" nType="-99"/>
        </Node>
        <Node pos="r" depth="1" NCoef="0" IVar="1" Cut="3.6000076293945312e+01" cType="1" res="2.0835613831877708e-02" rms="3.6063888669013977e-01" purity="5.4683810472488403e-01" nType="0">
          <Node pos="l" depth="2" NCoef="0" IVar="-1" Cut="0.0000000000000000e+00" cType="1" res="2.9253298416733742e-02" rms="4.1016098856925964e-01" purity="5.1375806331634521e-01" nType="-99"/>
          <Node pos="r" depth="2" NCoef="0" IVar="-1" Cut="0.0000000000000000e+00" cType="1" res="-1.1960144620388746e-03" rms="3.3757945895195007e-01" purity="5.5893784761428833e-01" nType="-99"/>
        </Node>
      </Node>
    </BinaryTree>
    <BinaryTree type="DecisionTree" boostWeight="1.0000000000000000e+00" itree="48">
      <Node pos="s" depth="0" NCoef="0" IVar="5" Cut="2.9919946193695068e-01" cType="1" res="-1.5331726754084229e-03" rms="9.5557011663913727e-02" purity="4.9443370103836060e-01" nType="0">
        <Node pos="l" depth="1" NCoef="0" IVar="20" Cut="1.3473018407821655e+00" cType="1" res="2.1901072468608618e-03" rms="8.4835559129714966e-02" purity="7.1540689468383789e-01" nType="0">
          <Node pos="l" depth="2" NCoef="0" IVar="-1" Cut="0.0000000000000000e+00" cType="1" res="1.7547164112329483e-02" rms="3.2202690839767456e-01" purity="7.6451915502548218e-01" nType="-99"/>
          <Node pos="r" depth="2" NCoef="0" IVar="-1" Cut="0.0000000000000000e+00" cType="1" res="-1.3680379837751389e-02" rms="2.9753908514976501e-01" purity="5.2545356750488281e-01" nType="-99"/>
        </Node>
        <Node pos="r" depth="1" NCoef="0" IVar="1" Cut="4.9000034332275391e+01" cType="1" res="-2.6122368872165680e-02" rms="3.4198993444442749e-01" purity="3.9310047030448914e-01" nType="0">
          <Node pos="l" depth="2" NCoef="0" IVar="-1" Cut="0.0000000000000000e+00" cType="1" res="-1.5607045032083988e-02" rms="3.4368053078651428e-01" purity="2.6743417978286743e-01" nType="-99"/>
          <Node pos="r" depth="2" NCoef="0" IVar="-1" Cut="0.0000000000000000e+00" cType="1" res="8.0725261941552162e-03" rms="3.3286261558532715e-01" purity="7.5835925340652466e-01" nType="-99"/>
        </Node>
      </Node>
    </BinaryTree>
    <BinaryTree type="DecisionTree" boostWeight="1.0000000000000000e+00" itree="49">
      <Node pos="s" depth="0" NCoef="0" IVar="1" Cut="7.5000076293945312e+01" cType="1" res="-6.6453171893954277e-03" rms="3.4134143590927124e-01" purity="4.8577460646629333e-01" nType="0">
        <Node pos="l" depth="1" NCoef="0" IVar="2" Cut="7.2000030517578125e+01" cType="1" res="-2.4431855417788029e-03" rms="3.3788916468620300e-01" purity="4.8044288158416748e-01" nType="0">
          <Node pos="l" depth="2" NCoef="0" IVar="-1" Cut="0.0000000000000000e+00" cType="1" res="-4.8202630132436752e-03" rms="3.6872485280036926e-01" purity="3.3236306905746460e-01" nType="-99"/>
          <Node pos="r" depth="2" NCoef="0" IVar="-1" Cut="0.0000000000000000e+00" cType="1" res="2.3562330752611160e-02" rms="2.0755603909492493e-01" purity="9.5116120576858521e-01" nType="-99"/>
        </Node>
        <Node pos="r" depth="1" NCoef="0" IVar="-1" Cut="0.0000000000000000e+00" cType="1" res="-5.0150725990533829e-02" rms="4.1643315553665161e-01" purity="6.5868687629699707e-01" nType="-99"/>
      </Node>
    </BinaryTree>
    <BinaryTree type="DecisionTree" boostWeight="1.0000000000000000e+00" itree="50">
      <Node pos="s" depth="0" NCoef="0" IVar="0" Cut="6.9233688354492188e+01" cType="1" res="3.4598147030919790e-03" rms="3.4629037976264954e-01" purity="4.9868130683898926e-01" nType="0">
        <Node pos="l" depth="1" NCoef="0" IVar="-1" Cut="0.0000000000000000e+00" cType="1" res="-5.6387282907962799e-02" rms="2.4230424314737320e-02" purity="0.0000000000000000e+00" nType="-99"/>
        <Node pos="r" depth="1" NCoef="0" IVar="1" Cut="3.2000000000000000e+01" cType="1" res="7.5519224628806114e-03" rms="3.5189855098724365e-01" purity="5.1701766252517700e-01" nType="0">
          <Node pos="l" depth="2" NCoef="0" IVar="-1" Cut="0.0000000000000000e+00" cType="1" res="2.8673471882939339e-02" rms="4.1161465644836426e-01" purity="4.8238426446914673e-01" nType="-99"/>
          <Node pos="r" depth="2" NCoef="0" IVar="-1" Cut="0.0000000000000000e+00" cType="1" res="-3.2306762295775115e-04" rms="3.4339576959609985e-01" purity="5.2098983526229858e-01" nType="-99"/>
        </Node>
      </Node>
    </BinaryTree>
    <BinaryTree type="DecisionTree" boostWeight="1.0000000000000000e+00" itree="51">
      <Node pos="s" depth="0" NCoef="0" IVar="3" Cut="6.4028533935546875e+01" cType="1" res="8.2670757547020912e-03" rms="3.4964784979820251e-01" purity="5.0476562976837158e-01" nType="0">
        <Node pos="l" depth="1" NCoef="0" IVar="0" Cut="6.9535537719726562e+01" cType="1" res="1.2010062113404274e-02" rms="3.4644109010696411e-01" purity="5.0050741434097290e-01" nType="0">
          <Node pos="l" depth="2" NCoef="0" IVar="-1" Cut="0.0000000000000000e+00" cType="1" res="-5.5780008435249329e-02" rms="2.2755481302738190e-02" purity="0.0000000000000000e+00" nType="-99"/>
          <Node pos="r" depth="2" NCoef="0" IVar="-1" Cut="0.0000000000000000e+00" cType="1" res="6.2991231679916382e-03" rms="3.5244834423065186e-01" purity="5.2017474174499512e-01" nType="-99"/>
        </Node>
        <Node pos="r" depth="1" NCoef="0" IVar="-1" Cut="0.0000000000000000e+00" cType="1" res="-4.5773196965456009e-02" rms="4.3210557103157043e-01" purity="6.6806471347808838e-01" nType="-99"/>
      </Node>
    </BinaryTree>
    <BinaryTree type="DecisionTree" boostWeight="1.0000000000000000e+00" itree="52">
      <Node pos="s" depth="0" NCoef="0" IVar="4" Cut="2.6472091674804688e+00" cType="1" res="1.3663470745086670e-03" rms="1.0276819765567780e-01" purity="5.1589876413345337e-01" nType="0">
        <Node pos="l" depth="1" NCoef="0" IVar="6" Cut="2.3936419486999512e+00" cType="1" res="-1.0212077759206295e-02" rms="3.5161450505256653e-02" purity="3.9820018410682678e-01" nType="0">
          <Node pos="l" depth="2" NCoef="0" IVar="-1" Cut="0.0000000000000000e+00" cType="1" res="-1.7281219363212585e-02" rms="3.4104236960411072e-01" purity="3.8349050283432007e-01" nType="-99"/>
          <Node pos="r" depth="2" NCoef="0" IVar="-1" Cut="0.0000000000000000e+00" cType="1" res="-5.8112423866987228e-02" rms="3.6228817701339722e-01" purity="4.1566231846809387e-01" nType="-99"/>
        </Node>
        <Node pos="r" depth="1" NCoef="0" IVar="1" Cut="3.4000034332275391e+01" cType="1" res="2.2986710071563721e-02" rms="3.5003429651260376e-01" purity="5.2484476566314697e-01" nType="0">
          <Node pos="l" depth="2" NCoef="0" IVar="-1" Cut="0.0000000000000000e+00" cType="1" res="2.8315134346485138e-02" rms="3.9302995800971985e-01" purity="4.2927154898643494e-01" nType="-99"/>
          <Node pos="r" depth="2" NCoef="0" IVar="-1" Cut="0.0000000000000000e+00" cType="1" res="3.5787739325314760e-03" rms="3.3573639392852783e-01" purity="5.5147671699523926e-01" nType="-99"/>
        </Node>
      </Node>
    </BinaryTree>
    <BinaryTree type="DecisionTree" boostWeight="1.0000000000000000e+00" itree="53">
      <Node pos="s" depth="0" NCoef="0" IVar="6" Cut="1.1968066692352295e+00" cType="1" res="-3.7102482747286558e-03" rms="8.0438740551471710e-02" purity="4.8225206136703491e-01" nType="0">
        <Node pos="l" depth="1" NCoef="0" IVar="6" Cut="4.5591199398040771e-01" cType="1" res="-2.7336936444044113e-02" rms="1.1035692691802979e-01" purity="1.3226750493049622e-01" nType="0">
          <Node pos="l" depth="2" NCoef="0" IVar="-1" Cut="0.0000000000000000e+00" cType="1" res="-3.3210746478289366e-03" rms="3.1322833895683289e-01" purity="2.3835593461990356e-01" nType="-99"/>
          <Node pos="r" depth="2" NCoef="0" IVar="-1" Cut="0.0000000000000000e+00" cType="1" res="-5.0857212394475937e-02" rms="1.6889275610446930e-01" purity="6.0481984168291092e-02" nType="-99"/>
        </Node>
        <Node pos="r" depth="1" NCoef="0" IVar="6" Cut="1.5672738552093506e+00" cType="1" res="-8.5721520008519292e-04" rms="7.5399048626422882e-02" purity="5.2732884883880615e-01" nType="0">
          <Node pos="l" depth="2" NCoef="0" IVar="-1" Cut="0.0000000000000000e+00" cType="1" res="4.3202929198741913e-02" rms="4.0866824984550476e-01" purity="4.0310797095298767e-01" nType="-99"/>
          <Node pos="r" depth="2" NCoef="0" IVar="-1" Cut="0.0000000000000000e+00" cType="1" res="-3.7370484787970781e-03" rms="3.4412810206413269e-01" purity="5.3794866800308228e-01" nType="-99"/>
        </Node>
      </Node>
    </BinaryTree>
    <BinaryTree type="DecisionTree" boostWeight="1.0000000000000000e+00" itree="54">
      <Node pos="s" depth="0" NCoef="0" IVar="10" Cut="2.0831646919250488e+00" cType="1" res="2.5095392484217882e-03" rms="1.0770642012357712e-01" purity="5.1480013132095337e-01" nType="0">
        <Node pos="l" depth="1" NCoef="0" IVar="1" Cut="4.1000129699707031e+01" cType="1" res="1.5313616953790188e-02" rms="3.5119244456291199e-01" purity="5.3341555595397949e-01" nType="0">
          <Node pos="l" depth="2" NCoef="0" IVar="-1" Cut="0.0000000000000000e+00" cType="1" res="1.4440957456827164e-02" rms="3.7789952754974365e-01" purity="4.3746632337570190e-01" nType="-99"/>
          <Node pos="r" depth="2" NCoef="0" IVar="-1" Cut="0.0000000000000000e+00" cType="1" res="-3.9854114875197411e-03" rms="3.1861412525177002e-01" purity="6.3497889041900635e-01" nType="-99"/>
        </Node>
        <Node pos="r" depth="1" NCoef="0" IVar="-1" Cut="0.0000000000000000e+00" cType="1" res="-4.7848530113697052e-02" rms="2.0733791589736938e-01" purity="1.4655429124832153e-01" nType="-99"/>
      </Node>
    </BinaryTree>
    <BinaryTree type="DecisionTree" boostWeight="1.0000000000000000e+00" itree="55">
      <Node pos="s" depth="0" NCoef="0" IVar="2" Cut="5.2000160217285156e+01" cType="1" res="-6.3201682642102242e-03" rms="3.3642938733100891e-01" purity="4.9476411938667297e-01" nType="0">
        <Node pos="l" depth="1" NCoef="0" IVar="20" Cut="2.4868613481521606e-01" cType="1" res="-3.7145558744668961e-03" rms="1.2357862293720245e-01" purity="1.8969970941543579e-01" nType="0">
          <Node pos="l" depth="2" NCoef="0" IVar="-1" Cut="0.0000000000000000e+00" cType="1" res="-3.0738940462470055e-02" rms="3.2126379013061523e-01" purity="1.6542242467403412e-01" nType="-99"/>
          <Node pos="r" depth="2" NCoef="0" IVar="-1" Cut="0.0000000000000000e+00" cType="1" res="-9.2283450067043304e-04" rms="3.6069861054420471e-01" purity="1.9751356542110443e-01" nType="-99"/>
        </Node>
        <Node pos="r" depth="1" NCoef="0" IVar="4" Cut="2.8590877056121826e+00" cType="1" res="-4.3672445463016629e-04" rms="5.5476285517215729e-02" purity="8.1905668973922729e-01" nType="0">
          <Node pos="l" depth="2" NCoef="0" IVar="-1" Cut="0.0000000000000000e+00" cType="1" res="-1.2750633992254734e-02" rms="3.5170003771781921e-01" purity="7.6097422838211060e-01" nType="-99"/>
          <Node pos="r" depth="2" NCoef="0" IVar="-1" Cut="0.0000000000000000e+00" cType="1" res="1.3977454043924809e-02" rms="3.0025562644004822e-01" purity="8.3809340000152588e-01" nType="-99"/>
        </Node>
      </Node>
    </BinaryTree>
    <BinaryTree type="DecisionTree" boostWeight="1.0000000000000000e+00" itree="56">
      <Node pos="s" depth="0" NCoef="0" IVar="10" Cut="8.5293263196945190e-01" cType="1" res="-1.7579006962478161e-03" rms="8.6462333798408508e-02" purity="5.0830066204071045e-01" nType="0">
        <Node pos="l" depth="1" NCoef="0" IVar="2" Cut="2.8000019073486328e+01" cType="1" res="2.2111564874649048e-02" rms="3.5603526234626770e-01" purity="5.4012191295623779e-01" nType="0">
          <Node pos="l" depth="2" NCoef="0" IVar="-1" Cut="0.0000000000000000e+00" cType="1" res="-4.4628966599702835e-02" rms="2.1986605226993561e-01" purity="4.9623891711235046e-02" nType="-99"/>
          <Node pos="r" depth="2" NCoef="0" IVar="-1" Cut="0.0000000000000000e+00" cType="1" res="1.0190854780375957e-02" rms="3.5911518335342407e-01" purity="5.5782234668731689e-01" nType="-99"/>
        </Node>
        <Node pos="r" depth="1" NCoef="0" IVar="4" Cut="2.7884678840637207e+00" cType="1" res="-3.8988252636045218e-03" rms="8.3185583353042603e-02" purity="4.1173490881919861e-01" nType="0">
          <Node pos="l" depth="2" NCoef="0" IVar="-1" Cut="0.0000000000000000e+00" cType="1" res="-4.4866587966680527e-02" rms="2.9430794715881348e-01" purity="3.6627230048179626e-01" nType="-99"/>
          <Node pos="r" depth="2" NCoef="0" IVar="-1" Cut="0.0000000000000000e+00" cType="1" res="-5.0477855838835239e-03" rms="3.1934532523155212e-01" purity="4.2023518681526184e-01" nType="-99"/>
        </Node>
      </Node>
    </BinaryTree>
    <BinaryTree type="DecisionTree" boostWeight="1.0000000000000000e+00" itree="57">
      <Node pos="s" depth="0" NCoef="0" IVar="19" Cut="2.3809523582458496e+00" cType="1" res="2.0376690663397312e-03" rms="1.0982260853052139e-01" purity="5.0836557149887085e-01" nType="0">
        <Node pos="l" depth="1" NCoef="0" IVar="4" Cut="2.8237745761871338e+00" cType="1" res="2.4246454704552889e-03" rms="1.1190599203109741e-01" purity="5.2684205770492554e-01" nType="0">
          <Node pos="l" depth="2" NCoef="0" IVar="-1" Cut="0.0000000000000000e+00" cType="1" res="-9.7665088251233101e-03" rms="3.6403074860572815e-01" purity="5.1024442911148071e-01" nType="-99"/>
          <Node pos="r" depth="2" NCoef="0" IVar="-1" Cut="0.0000000000000000e+00" cType="1" res="7.8952359035611153e-03" rms="3.4316831827163696e-01" purity="5.3118950128555298e-01" nType="-99"/>
        </Node>
        <Node pos="r" depth="1" NCoef="0" IVar="-1" Cut="0.0000000000000000e+00" cType="1" res="-5.4516661912202835e-02" rms="1.8816371262073517e-01" purity="5.0184335559606552e-02" nType="-99"/>
      </Node>
    </BinaryTree>
    <BinaryTree type="DecisionTree" boostWeight="1.0000000000000000e+00" itree="58">
      <Node pos="s" depth="0" NCoef="0" IVar="6" Cut="4.4881644845008850e-01" cType="1" res="1.2666765833273530e-03" rms="1.0514056682586670e-01" purity="4.9944767355918884e-01" nType="0">
        <Node pos="l" depth="1" NCoef="0" IVar="-1" Cut="0.0000000000000000e+00" cType="1" res="3.6647103726863861e-02" rms="3.8259577751159668e-01" purity="3.5238373279571533e-01" nType="-99"/>
        <Node pos="r" depth="1" NCoef="0" IVar="14" Cut="1.3463975191116333e+00" cType="1" res="-5.0944145186804235e-06" rms="9.3179754912853241e-02" purity="5.0759536027908325e-01" nType="0">
          <Node pos="l" depth="2" NCoef="0" IVar="-1" Cut="0.0000000000000000e+00" cType="1" res="-5.0430935807526112e-03" rms="3.3315452933311462e-01" purity="4.9526312947273254e-01" nType="-99"/>
          <Node pos="r" depth="2" NCoef="0" IVar="-1" Cut="0.0000000000000000e+00" cType="1" res="2.8249079361557961e-02" rms="3.4697100520133972e-01" purity="7.1808397769927979e-01" nType="-99"/>
        </Node>
      </Node>
    </BinaryTree>
    <BinaryTree type="DecisionTree" boostWeight="1.0000000000000000e+00" itree="59">
      <Node pos="s" depth="0" NCoef="0" IVar="0" Cut="8.8233688354492188e+01" cType="1" res="1.0573243722319603e-02" rms="3.5312342643737793e-01" purity="5.0610530376434326e-01" nType="0">
        <Node pos="l" depth="1" NCoef="0" IVar="19" Cut="9.5237934589385986e-01" cType="1" res="1.6757167875766754e-02" rms="2.2444982826709747e-01" purity="2.0309489965438843e-01" nType="0">
          <Node pos="l" depth="2" NCoef="0" IVar="-1" Cut="0.0000000000000000e+00" cType="1" res="-7.9798735678195953e-03" rms="3.5378974676132202e-01" purity="1.5739211440086365e-01" nType="-99"/>
          <Node pos="r" depth="2" NCoef="0" IVar="-1" Cut="0.0000000000000000e+00" cType="1" res="6.3990831375122070e-02" rms="4.2294389009475708e-01" purity="2.5246709585189819e-01" nType="-99"/>
        </Node>
        <Node pos="r" depth="1" NCoef="0" IVar="18" Cut="7.1428185701370239e-01" cType="1" res="-3.6660071928054094e-03" rms="2.1623627841472626e-01" purity="6.1441731452941895e-01" nType="0">
          <Node pos="l" depth="2" NCoef="0" IVar="-1" Cut="0.0000000000000000e+00" cType="1" res="8.5513796657323837e-03" rms="3.3606213331222534e-01" purity="7.2342741489410400e-01" nType="-99"/>
          <Node pos="r" depth="2" NCoef="0" IVar="-1" Cut="0.0000000000000000e+00" cType="1" res="-1.2328740209341049e-02" rms="3.3193212747573853e-01" purity="4.9742203950881958e-01" nType="-99"/>
        </Node>
      </Node>
    </BinaryTree>
    <BinaryTree type="DecisionTree" boostWeight="1.0000000000000000e+00" itree="60">
      <Node pos="s" depth="0" NCoef="0" IVar="1" Cut="4.8000000000000000e+01" cType="1" res="1.8777331570163369e-03" rms="3.3905547857284546e-01" purity="5.0278562307357788e-01" nType="0">
        <Node pos="l" depth="1" NCoef="0" IVar="3" Cut="2.2028642654418945e+01" cType="1" res="-1.2687000446021557e-02" rms="3.4615528583526611e-01" purity="3.7949660420417786e-01" nType="0">
          <Node pos="l" depth="2" NCoef="0" IVar="-1" Cut="0.0000000000000000e+00" cType="1" res="-1.1008212342858315e-02" rms="3.3987751603126526e-01" purity="1.9249998033046722e-01" nType="-99"/>
          <Node pos="r" depth="2" NCoef="0" IVar="-1" Cut="0.0000000000000000e+00" cType="1" res="9.1318907216191292e-03" rms="3.5639351606369019e-01" purity="7.7680176496505737e-01" nType="-99"/>
        </Node>
        <Node pos="r" depth="1" NCoef="0" IVar="0" Cut="1.9208984375000000e+02" cType="1" res="3.5386119037866592e-02" rms="3.1961762905120850e-01" purity="7.8643071651458740e-01" nType="0">
          <Node pos="l" depth="2" NCoef="0" IVar="-1" Cut="0.0000000000000000e+00" cType="1" res="2.0814351737499237e-02" rms="3.0745849013328552e-01" purity="7.9441595077514648e-01" nType="-99"/>
          <Node pos="r" depth="2" NCoef="0" IVar="-1" Cut="0.0000000000000000e+00" cType="1" res="-3.7538055330514908e-02" rms="4.0352866053581238e-01" purity="6.9899535179138184e-01" nType="-99"/>
        </Node>
      </Node>
    </BinaryTree>
    <BinaryTree type="DecisionTree" boostWeight="1.0000000000000000e+00" itree="61">
      <Node pos="s" depth="0" NCoef="0" IVar="5" Cut="4.4879764318466187e-01" cType="1" res="-1.1582141742110252e-03" rms="9.0992629528045654e-02" purity="5.0968837738037109e-01" nType="0">
        <Node pos="l" depth="1" NCoef="0" IVar="2" Cut="3.5000160217285156e+01" cType="1" res="3.0929854139685631e-02" rms="3.3675915002822876e-01" purity="6.9951063394546509e-01" nType="0">
          <Node pos="l" depth="2" NCoef="0" IVar="-1" Cut="0.0000000000000000e+00" cType="1" res="-1.6862802207469940e-02" rms="3.7590524554252625e-01" purity="2.2721892595291138e-01" nType="-99"/>
          <Node pos="r" depth="2" NCoef="0" IVar="-1" Cut="0.0000000000000000e+00" cType="1" res="1.5696121379733086e-02" rms="3.3286780118942261e-01" purity="7.3322904109954834e-01" nType="-99"/>
        </Node>
